124
499
0.140209
-0.011534
-0.069523
0.057281
0.004797
0.038654
0.068254
0.013791
-0.041560
0.323998
-0.239016
0.039095
0.014349
0.224569
-0.370413
-0.114479
0.384327
0.040833
-0.184471
0.101194
-0.090417
0.071421
0.224914
0.045244
0.024940
0.067465
0.146469
-0.144651
0.015985
0.046482
-0.172528
0.277476
-0.435805
0.437860
0.027599
0.044112
-0.013940
0.045396
-0.181926
0.338052
-0.069611
0.041219
0.071899
0.147350
0.300043
-0.140293
-0.251626
0.046455
-0.062009
0.091271
-0.102376
-0.021744
0.217215
0.044739
0.064350
0.042344
-0.113499
0.101180
0.042104
0.042739
0.081240
0.050711
-0.059205
0.127806
0.029385
-0.025395
-0.075038
-0.073889
-0.060234
-0.028380
-0.006228
0.020838
0.041144
0.049085
0.062660
0.066360
0.074317
0.067520
0.054463
0.025711
-0.013804
-0.058036
-0.070938
-0.098312
-0.109255
-0.102418
-0.082252
-0.049689
-0.009763
0.041554
0.074820
0.073549
0.080933
0.052301
0.018790
-0.019977
-0.037511
-0.040419
-0.047024
-0.033135
-0.019692
-0.038329
-0.057192
-0.073602
-0.089488
-0.065673
-0.023400
0.025167
0.066326
0.093016
0.120665
0.124104
0.134259
0.150620
0.156153
0.136967
0.129566
0.094575
0.064235
0.038947
0.023715
0.014323
0.008903
0.012332
0.017218
-0.004664
-0.026932
-0.046016
-0.066599
-0.094476
-0.120277
-0.136604
-0.163253
-0.182865
-0.182929
-0.166868
-0.124726
-0.087473
-0.025150
0.006307
0.016088
0.007279
-0.017506
-0.023872
-0.031200
0.005005
0.017681
0.039461
0.034595
0.022685
0.010701
-0.011678
-0.040332
-0.064373
-0.083079
-0.082675
-0.080730
-0.069507
-0.054591
-0.042373
-0.036064
-0.030057
-0.042207
-0.042441
-0.047627
-0.038656
-0.030186
-0.026015
-0.026069
-0.039829
-0.046803
-0.072061
0.063459
0.075979
0.078488
0.063161
0.063781
0.055553
0.055079
0.046370
0.041716
0.030720
-0.000873
-0.009199
-0.017298
-0.022851
-0.017777
-0.004131
0.032447
0.070104
0.097465
0.138222
0.162084
0.178126
0.177980
0.171503
0.147034
0.099771
0.043110
-0.001787
-0.047715
-0.061598
-0.056978
-0.022163
0.038493
0.112787
0.158285
0.187991
0.176998
0.136839
0.084760
0.030429
-0.038629
-0.095480
-0.138322
-0.179250
-0.199602
-0.193426
-0.164288
-0.117516
-0.049190
0.009624
0.063081
0.086513
0.100711
0.067385
0.045249
0.005581
-0.029683
-0.036485
-0.035204
-0.016757
0.015593
0.042588
0.076869
0.098696
0.129679
0.161868
0.186885
0.186923
0.183725
0.135037
0.084864
0.021885
-0.069621
-0.152234
-0.207595
-0.241197
-0.247812
-0.220090
-0.193053
-0.146037
-0.121777
-0.076264
-0.044963
-0.009572
0.017981
0.019240
0.012673
-0.007498
-0.020265
-0.040866
-0.056788
-0.057278
-0.068076
-0.073339
-0.094120
-0.109281
-0.152873
-0.163837
-0.191812
-0.198260
-0.165156
-0.122658
-0.061433
-0.002214
0.046484
0.069422
0.009309
-0.070946
-0.204010
-0.051279
0.015943
0.120220
0.213898
0.254599
0.244056
0.179678
0.076231
-0.011108
-0.074236
-0.092706
-0.077881
-0.028470
0.008857
0.041540
0.048028
0.026574
-0.010998
-0.039773
-0.050450
-0.039205
0.001466
0.041535
0.094955
0.124410
0.116119
0.092172
0.034093
-0.032331
-0.091598
-0.109054
-0.097031
-0.048794
0.017796
0.071079
0.118512
0.127405
0.111702
0.063452
0.026237
-0.006874
0.001430
0.005550
0.030277
0.047784
0.032311
0.028569
0.020735
0.041628
0.078446
0.141850
0.189666
0.219012
0.206147
0.171862
0.128646
0.078499
0.063495
0.052370
0.064612
0.048272
0.016552
-0.072600
-0.195657
-0.325069
-0.445789
-0.526380
-0.543036
-0.475541
-0.355821
-0.204062
-0.054577
0.042127
0.077080
0.055459
0.004216
-0.057600
-0.094103
-0.107055
-0.092239
-0.058802
-0.007201
0.044274
0.092344
0.147714
0.179583
0.209152
0.204282
0.185621
0.124260
0.054567
0.006587
-0.025401
-0.025587
0.003960
0.041128
0.069731
0.096546
0.105811
0.103458
0.086095
0.064357
0.028272
-0.002899
-0.026616
-0.043633
-0.023387
0.023007
0.072375
-0.058392
-0.071505
-0.093227
-0.114259
-0.126568
-0.130521
-0.110430
-0.081955
-0.019817
0.037606
0.082190
0.112868
0.105102
0.057185
0.020983
-0.022688
-0.055215
-0.083460
-0.124032
-0.134053
-0.131407
-0.106648
-0.077712
-0.027426
0.018135
0.059796
0.071579
0.091014
0.088459
0.076414
0.059780
0.036234
-0.011678
-0.055936
-0.112733
-0.134661
-0.145052
-0.125845
-0.091018
-0.057849
-0.012594
-0.004984
-0.010636
-0.059936
-0.105688
-0.143216
-0.171894
-0.182105
-0.197696
-0.207730
-0.215787
-0.222425
-0.219418
-0.196627
-0.160252
-0.130042
-0.094302
-0.077336
-0.058928
-0.039150
0.000366
0.078202
0.200286
0.343217
0.507416
0.628344
0.694613
0.674484
0.581132
0.446152
0.265423
0.101483
-0.032600
-0.104591
-0.120861
-0.111608
-0.093225
-0.078742
-0.082039
-0.089726
-0.126189
-0.142694
-0.150763
-0.135801
-0.123397
-0.112193
-0.106280
-0.103030
-0.107823
-0.081204
-0.059765
-0.032930
-0.009238
-0.007331
-0.020388
-0.054787
-0.076397
-0.099665
-0.075549
-0.047946
0.019026
0.067759
0.126986
0.165761
0.173578
0.149599
0.118486
0.067001
-0.007843
0.001027
-0.054973
-0.172305
-0.193653
0.121197
-0.096374
0.265453
0.038209
-0.153917
-0.146135
-0.310022
-0.097847
-0.397267
0.349878
0.119883
-0.094431
-0.294123
-0.104151
-0.006629
-0.003195
-0.150483
-0.243111
0.111476
-0.105074
-0.001034
0.039846
-0.265922
0.022293
-0.087318
-0.099883
-0.521721
0.206147
0.116244
0.055163
-0.162886
-0.103404
0.060786
-0.439677
-0.127685
0.582549
-0.380994
-0.103220
-0.207363
0.039287
-0.448607
0.023736
0.278793
-0.102945
-0.605366
0.546207
-0.116887
0.139827
-0.269931
-0.100315
0.016053
-0.153120
-0.002198
0.022821
0.013277
0.026643
0.233234
0.104305
-0.002776
-0.283132
-0.220595
-0.151597
-0.083119
-0.025166
0.028834
0.055186
0.077950
0.086431
0.078315
0.072450
0.059151
0.039750
0.022357
-0.006382
-0.026447
-0.037775
-0.007327
0.015694
0.043015
0.060514
0.084142
0.088056
0.095070
0.097892
0.098182
0.071965
0.047954
0.024834
-0.012995
-0.033248
-0.028038
-0.026390
0.007157
0.049300
0.095673
0.149500
0.204179
0.223437
0.233799
0.210381
0.178476
0.136603
0.103799
0.076341
0.056224
0.042413
0.045806
0.033428
0.053159
0.063907
0.071301
0.072228
0.035877
-0.007013
-0.040644
-0.064418
-0.040442
-0.013528
0.001247
-0.033622
-0.116754
-0.274709
-0.469991
-0.616374
-0.687520
-0.651623
-0.531381
-0.353959
-0.164236
-0.021603
0.071006
0.108807
0.115409
0.096532
0.081167
0.042876
0.030671
0.011776
-0.012971
-0.025340
-0.039191
-0.055326
-0.072926
-0.074621
-0.068176
-0.050759
-0.011066
0.033094
0.079648
0.127164
0.153067
0.143203
0.112838
0.055272
-0.000875
-0.043411
-0.095337
-0.140013
-0.175992
-0.215505
-0.227398
-0.218457
-0.170018
-0.089133
0.012676
0.085734
0.110344
0.084041
0.027761
-0.005338
-0.025393
-0.028747
-0.023993
0.004526
0.031655
0.052923
0.052550
0.047288
0.029113
-0.002183
-0.008899
0.001913
0.019133
0.054269
0.086102
0.121010
0.133583
0.139021
0.129801
0.108517
0.070296
0.032391
-0.008310
-0.029239
-0.051601
-0.059558
-0.049461
-0.062620
-0.066935
-0.081993
-0.092021
-0.108693
-0.121743
-0.127350
-0.129763
-0.110928
-0.068472
-0.020685
0.023980
0.050914
0.060529
0.039689
-0.010883
-0.063928
-0.122636
-0.153319
-0.146509
-0.120806
-0.074195
-0.022996
0.010331
0.031678
0.044392
0.039757
0.030325
0.029039
0.031482
0.038276
0.068303
0.100544
0.129335
0.166839
0.173015
0.187979
0.183947
0.165583
0.147434
0.131205
0.101731
0.069024
0.030012
-0.011890
-0.054484
-0.089466
-0.109049
-0.123729
-0.131493
-0.124573
-0.129049
-0.106387
-0.080354
-0.048383
-0.008641
0.015859
0.037116
0.045452
0.025937
0.010006
-0.037183
-0.069784
-0.077331
-0.079422
-0.053640
-0.009420
0.023248
0.049428
0.051986
0.033527
0.005216
-0.029657
-0.044935
-0.062837
-0.091725
-0.125967
-0.168211
-0.205520
-0.239088
0.172066
0.128348
0.100332
0.093224
0.087961
0.102327
0.121595
0.119329
0.099790
0.054757
0.017017
-0.029487
-0.067992
-0.087363
-0.093235
-0.058275
-0.001720
0.050123
0.100640
0.131271
0.123048
0.088756
0.020659
-0.052084
-0.114683
-0.141628
-0.144325
-0.113255
-0.060936
-0.015332
0.004798
0.004633
-0.010428
-0.025120
-0.042821
-0.028679
-0.010487
0.012341
0.006124
0.016267
-0.010313
-0.030991
-0.055187
-0.059847
-0.043378
-0.028822
0.001653
0.026429
0.060177
0.081763
0.100555
0.122891
0.139492
0.142077
0.123924
0.091488
0.037552
-0.010823
-0.043506
-0.053700
-0.041617
-0.013389
0.013346
0.013337
0.008888
-0.005727
-0.018184
-0.005474
0.046839
0.123262
0.190726
0.239262
0.232811
0.192025
0.115326
0.046156
-0.000461
-0.005885
0.011855
0.065542
0.092782
0.102028
0.083520
0.044331
-0.005324
-0.046646
-0.055320
-0.038454
-0.000521
0.044363
0.088806
0.120195
0.097293
0.059325
0.009642
-0.037157
-0.053844
-0.027188
0.028135
0.082085
0.117034
0.124625
0.078592
0.006999
-0.067680
-0.115581
-0.130886
-0.090467
0.002485
-0.046743
-0.075760
-0.073108
-0.050793
-0.034966
-0.020051
-0.018449
-0.030258
-0.036531
-0.049237
-0.039737
-0.023505
0.008004
0.033424
0.032536
0.044102
0.013202
0.002199
-0.016135
-0.011768
0.011153
0.032352
0.063183
0.091714
0.128707
0.164975
0.184983
0.213696
0.227650
0.228139
0.220613
0.176898
0.141573
0.107273
0.077434
0.072460
0.069330
0.062896
0.044436
-0.006949
-0.039986
-0.082281
-0.094420
-0.069035
-0.013932
0.054010
0.129871
0.183423
0.186469
0.166947
0.096169
-0.012567
-0.130198
-0.235291
-0.301044
-0.315216
-0.276912
-0.174992
-0.051126
0.051403
0.131333
0.183558
0.200879
0.168032
0.152063
0.142233
0.138730
0.155772
0.143427
0.098853
0.016729
-0.089900
-0.189868
-0.236023
-0.205439
-0.122940
0.005371
0.135859
0.247136
0.318378
0.330612
0.297084
0.237543
0.152808
0.069590
-0.030443
-0.096522
-0.138660
-0.140939
-0.101163
-0.031045
0.063519
0.144609
0.203082
0.209029
0.184194
0.160144
0.114299
0.101089
0.084475
0.080711
0.085442
0.091013
0.074849
0.061932
0.050717
0.023601
-0.008071
-0.071743
0.015928
0.023481
0.037710
0.011634
0.024159
0.033002
0.027094
0.027486
0.030275
0.019223
0.007860
0.040623
0.019732
0.029830
0.025110
0.021774
0.011209
0.032130
0.017473
0.031151
0.022094
0.024053
0.009545
0.041020
0.014017
0.031698
0.029133
0.020801
0.016248
0.038699
0.021637
0.030555
0.022510
0.030366
0.015198
0.038876
0.020138
0.027169
0.029684
0.016384
0.021591
0.032281
0.030039
0.021724
0.034990
0.025745
0.011540
0.031559
0.024065
0.022314
0.027719
0.028530
0.010537
0.040081
0.018834
0.012623
0.011587
0.019408
0.018200
0.010301
0.014595
0.013994
0.022036
0.009716
0.007504
-0.001808
-0.004355
-0.001854
-0.002584
-0.001422
-0.004431
-0.004324
0.003202
-0.001786
0.004545
0.005826
-0.001410
0.004890
0.006245
-0.000806
-0.000128
0.002236
0.002886
0.006727
0.004363
0.004661
0.010928
0.005932
0.000657
0.001358
0.004596
0.003966
0.004264
0.001962
0.003672
0.007462
0.013776
0.014436
0.007670
0.008473
0.006336
0.006784
0.005252
-0.002118
0.004503
0.000146
0.009708
0.012894
0.007223
0.018627
0.012739
0.013755
0.012682
0.012682
0.016203
0.009116
0.010256
0.010684
0.016589
0.014220
0.020752
0.017357
0.026249
0.018704
0.023444
0.017163
0.021123
0.014974
0.020814
0.020385
0.022147
0.020642
0.024989
0.029140
0.032250
0.038954
0.033187
0.025039
0.027014
0.020656
0.012974
0.022602
0.023175
0.020996
0.026122
0.031093
0.033494
0.036289
0.036457
0.038694
0.035600
0.026738
0.034067
0.030817
0.026656
0.031736
0.034966
0.036893
0.036490
0.034420
0.032862
0.027164
0.029713
0.026969
0.023823
0.017098
0.024213
0.019288
0.023352
0.028293
0.029500
0.026618
0.017771
0.015629
0.019925
0.020284
0.019398
0.020758
0.013247
0.014232
0.021143
0.023974
0.018346
0.022832
0.018985
0.020862
0.013665
0.012436
0.015119
0.017496
0.015835
0.007575
0.010425
0.015566
0.018777
0.011319
0.020781
0.019950
0.014359
0.014213
0.012607
0.018274
0.015516
0.014270
0.007205
0.009757
0.010529
0.004470
0.010160
0.014297
0.009579
0.009515
0.017391
0.017300
0.018487
0.011179
0.010923
0.017476
0.010479
0.014197
0.014636
0.007101
0.013398
0.006726
0.014252
0.013494
0.009281
0.016158
0.012370
0.016630
0.011309
0.018716
0.017770
0.021377
0.019110
0.022440
0.019049
0.015538
0.013769
0.012489
0.013436
0.017104
0.012700
0.010957
0.012673
0.011842
0.013642
0.017713
0.011931
0.019342
0.013802
0.011526
0.012267
0.013973
0.015597
0.013419
0.022823
0.019788
0.019608
0.013070
0.010929
0.017285
0.008921
0.017263
0.018764
0.019318
0.021520
0.017369
0.025371
0.024480
0.017772
0.016166
0.016848
0.020308
0.016235
0.022562
0.025029
0.026212
0.023605
0.032802
0.028487
0.019672
0.022708
0.020309
0.023859
0.017691
0.021625
0.023033
0.023207
0.015386
0.013763
0.013517
0.013670
0.013466
0.020309
0.019660
0.017930
0.015173
0.009768
0.016390
0.011717
0.012401
0.018013
0.016264
0.008516
0.009765
0.011815
0.017419
0.017837
0.017113
0.017138
0.011554
0.011822
0.016207
0.016675
0.009122
0.016070
0.007726
0.003686
0.011724
0.009281
0.003428
0.002878
0.011661
0.006161
0.012379
0.010314
0.003107
0.005162
0.010795
0.011674
0.012227
0.007286
0.013328
0.011233
0.006866
0.012271
0.011005
0.001767
0.007977
0.006906
0.009361
0.000753
0.000672
0.007353
0.009100
0.001218
0.004991
-0.000609
-0.001155
0.002151
0.005707
0.003088
0.005668
0.009808
0.013177
0.012287
0.013873
0.008191
0.017219
0.009424
0.014258
0.012238
0.011094
0.010565
0.005663
0.013784
0.010358
0.005929
0.006198
0.007532
0.013995
0.005515
0.009309
0.003276
0.012304
0.007933
0.008710
0.014176
0.017689
0.018129
0.011422
0.017748
0.010296
0.015274
0.013816
0.008528
0.010616
0.010455
0.011202
0.002685
0.003828
0.009132
0.007403
-0.002033
0.003316
-0.002205
-0.002138
-0.000653
0.002514
0.003029
0.005099
0.003201
0.003497
0.007375
-0.002070
-0.004033
-0.005132
-0.001512
0.001352
-0.004377
0.000243
0.010168
0.011348
0.006921
0.008691
0.001617
0.000856
-0.000831
-0.008852
-0.005692
-0.011024
0.001867
0.005106
0.012333
0.015865
0.009143
0.016897
0.013773
0.002403
-0.000243
-0.002874
0.003309
0.005137
0.009956
0.014649
0.021102
0.024699
0.025806
0.018601
0.020218
0.009212
0.013516
0.011218
0.012935
0.007096
0.010803
0.014114
0.023393
0.018704
0.026339
0.023713
0.017971
0.020828
0.011809
0.009451
0.013578
0.008870
0.008223
0.014504
0.013753
0.013958
0.018174
0.010793
0.017054
0.007117
0.009974
0.008288
0.000659
0.006400
0.001774
0.011298
0.011214
0.014272
0.012407
0.012040
0.005568
0.002667
0.001354
0.001755
0.004355
0.013222
0.014882
0.017699
0.020397
0.023779
0.022954
0.014612
0.011599
0.016670
0.012810
0.011356
0.006661
0.008511
0.015931
0.011031
0.017143
0.013676
0.018204
-0.045140
-0.003325
0.250307
0.012690
0.032312
0.078025
-0.001017
0.066610
0.159789
0.037111
-0.023827
0.080755
0.017110
0.043063
0.073685
0.054722
0.054568
0.085916
-0.001140
0.081590
0.116533
0.031147
0.035988
0.080871
-0.071791
0.039211
0.035862
0.050816
0.189778
0.081306
-0.099142
0.036972
0.043753
0.054736
0.216686
0.079739
-0.055784
0.059796
0.084373
0.035794
0.121948
0.079334
-0.032622
0.046759
0.020908
0.017935
0.193327
0.080566
-0.003406
0.008754
0.108201
0.024811
0.102580
0.086349
0.019604
0.016208
0.002397
0.059257
0.015532
-0.003277
-0.017099
-0.027665
0.016131
0.047602
0.012174
-0.007391
-0.013653
-0.016215
-0.004557
0.006836
0.015701
0.015834
0.030755
0.026662
0.022890
0.022284
0.012897
0.012296
0.013154
0.013213
0.017620
0.019497
0.034814
0.028619
0.027821
0.009594
-0.012502
-0.023957
-0.041685
-0.040371
-0.036252
-0.022036
-0.002434
0.019731
0.028598
0.037516
0.021313
0.003646
-0.018706
-0.035002
-0.055371
-0.073961
-0.076354
-0.063584
-0.054118
-0.044008
-0.031608
-0.016940
-0.015182
-0.019145
-0.040177
-0.056503
-0.063597
-0.071483
-0.072697
-0.059668
-0.042515
-0.014691
0.001117
0.017031
0.021416
0.017594
0.001874
-0.004792
-0.007537
-0.013209
-0.014684
-0.005926
-0.004451
0.010118
0.023142
0.034459
0.060009
0.071323
0.072629
0.057756
0.045590
0.020981
-0.007769
-0.009787
-0.004439
0.009212
0.051480
0.089056
0.119740
0.156165
0.172082
0.174984
0.167778
0.154662
0.128576
0.115738
0.116315
0.115654
0.126583
0.138375
0.152700
0.161624
0.168682
0.161832
0.144232
0.133704
0.119553
0.105350
0.090857
0.098632
0.104571
0.124499
0.148117
0.153075
0.162595
0.145103
-0.093785
-0.068179
-0.055909
-0.027558
0.001613
0.032973
0.062946
0.076947
0.102205
0.108504
0.111992
0.105395
0.094335
0.085955
0.073341
0.067687
0.063073
0.075961
0.084190
0.089069
0.095109
0.099380
0.089991
0.087471
0.072394
0.063807
0.058437
0.054056
0.041014
0.034181
0.019699
0.017199
-0.000224
-0.012916
-0.028471
-0.036678
-0.059668
-0.072646
-0.074670
-0.081923
-0.088134
-0.088157
-0.082304
-0.065473
-0.052173
-0.043784
-0.036019
-0.036314
-0.026992
-0.026885
-0.017430
-0.009589
0.002602
0.016372
0.028965
0.041414
0.050168
0.055330
0.050992
0.050908
0.044836
0.032978
0.032413
0.023351
0.027495
0.019719
0.017869
0.021350
0.011254
0.006646
0.009838
0.011443
0.007569
0.005852
0.003871
-0.000544
-0.001294
0.002097
0.017208
0.031680
0.046226
0.059834
0.082122
0.089109
0.091260
0.090726
0.089097
0.074771
0.067514
0.061848
0.058374
0.048987
0.058884
0.060127
0.067993
0.074281
0.073202
0.071447
0.061794
0.056014
0.036930
0.032249
0.040996
0.046304
0.063296
0.077159
0.088956
0.107040
0.121823
0.096107
0.112593
0.135831
0.143849
0.141279
0.134662
0.104592
0.084893
0.069906
0.067065
0.079903
0.082397
0.088062
0.093050
0.083762
0.063033
0.045725
0.041247
0.032194
0.033598
0.035903
0.033587
0.029294
0.024371
0.018357
0.007577
-0.001733
-0.009858
-0.006328
-0.006293
-0.006013
0.007882
0.017746
0.043466
0.061102
0.072059
0.089574
0.097838
0.096541
0.090585
0.082096
0.067827
0.049579
0.031626
0.023778
0.008427
0.017751
0.024705
0.046725
0.049053
0.055559
0.049299
0.031658
0.018814
-0.005160
-0.014761
-0.013507
-0.005383
0.003529
0.008312
0.020389
0.033595
0.037958
0.037339
0.043513
0.041575
0.043473
0.039746
0.038455
0.036093
0.043715
0.046039
0.052910
0.067407
0.072805
0.067662
0.069339
0.049083
0.032156
0.019307
0.005435
0.010984
0.010156
0.024163
0.035323
0.031583
0.033200
0.018061
0.014858
-0.001997
-0.006921
-0.013687
-0.017934
-0.015818
-0.006516
0.000565
0.009728
0.019831
0.030779
0.040110
0.046657
0.043463
0.029608
0.022007
0.011289
0.016989
0.021263
0.028302
0.043409
0.076897
0.061426
0.033227
0.008183
-0.018759
-0.042106
-0.068388
-0.075401
-0.086679
-0.091488
-0.088269
-0.086662
-0.088130
-0.090982
-0.100059
-0.117084
-0.117373
-0.124927
-0.124193
-0.122174
-0.107003
-0.089382
-0.076036
-0.069869
-0.063283
-0.062846
-0.063893
-0.083293
-0.099060
-0.103031
-0.114234
-0.113155
-0.092807
-0.069496
-0.046768
-0.035534
-0.017509
-0.017205
-0.015863
-0.015688
-0.007629
0.001212
0.011217
0.022874
0.039238
0.046155
0.048537
0.043333
0.027619
0.013286
-0.001323
-0.017733
-0.040875
-0.050137
-0.054926
-0.051768
-0.045011
-0.046807
-0.034894
-0.028603
-0.032972
-0.031442
-0.021751
-0.026865
-0.032536
-0.041868
-0.058792
-0.056795
-0.063187
-0.056496
-0.049639
-0.038406
-0.024789
-0.020422
-0.013072
-0.021627
-0.021381
-0.037382
-0.042241
-0.062475
-0.066198
-0.078119
-0.093025
-0.093430
-0.106414
-0.106739
-0.106021
-0.090932
-0.080221
-0.064960
-0.031213
-0.003338
0.014773
0.038233
0.043718
0.049497
0.036112
0.033620
0.030485
0.028458
0.032471
0.036222
0.038275
0.033900
0.040439
0.024300
0.014960
-0.000800
-0.024499
0.113058
-0.139771
0.085445
0.018174
0.083635
0.056579
-0.590354
0.066570
0.195607
0.359220
0.122462
0.049494
0.121066
0.068281
-0.033937
-0.046124
0.040495
0.049843
0.381307
-0.276561
-0.425398
0.387526
0.086649
0.056367
0.087931
0.200995
0.010233
-0.228058
0.089722
0.053577
-0.207990
0.185214
0.010564
0.148091
0.028244
0.048301
1.965436
-0.746147
-0.381743
-0.839176
0.158940
0.049686
-0.009948
-0.272376
0.113986
0.141549
0.173923
0.048097
-0.082567
0.103923
-0.085511
0.163014
0.055546
0.050040
0.327494
0.216232
-0.056960
0.153180
-0.311425
0.097475
-0.058798
-0.758275
0.516823
0.342728
0.269139
0.111776
-0.013139
-0.119163
-0.152442
-0.125178
-0.077478
-0.034442
-0.026677
-0.033525
-0.054610
-0.070523
-0.062324
-0.002264
0.033955
0.133704
0.209799
0.265918
0.278890
0.258885
0.171040
0.056193
-0.054748
-0.117260
-0.163910
-0.134306
-0.116846
-0.059309
-0.048927
-0.051114
-0.071273
-0.058994
-0.012620
0.036245
0.113684
0.122405
0.089782
0.014580
-0.095832
-0.190307
-0.238857
-0.146136
0.004473
0.156615
0.249537
0.247028
0.158336
0.003418
-0.160360
-0.272473
-0.323221
-0.276691
-0.173133
-0.063518
0.011676
0.059138
0.046692
-0.002430
-0.073164
-0.119328
-0.183884
-0.224038
-0.201666
-0.198400
-0.198612
-0.210487
-0.204903
-0.200628
-0.099751
0.018566
0.237779
0.467652
0.721455
0.962070
1.112730
1.213738
1.195493
1.124496
1.001388
0.800062
0.589015
0.330714
0.092551
-0.134933
-0.290734
-0.343591
-0.304784
-0.222354
-0.157292
-0.077965
-0.076374
-0.102549
-0.091832
-0.082119
-0.036352
0.024797
0.099511
0.140030
0.117423
0.068097
0.010521
-0.067777
-0.129061
-0.173109
-0.200681
-0.238384
-0.283520
-0.390426
-0.156585
-0.170220
-0.129105
-0.075869
0.008750
0.063389
0.056561
0.037171
-0.019627
-0.032642
-0.070290
-0.060265
-0.036513
-0.009598
-0.001236
0.006508
-0.013000
-0.053159
-0.080012
-0.081466
-0.080748
-0.046968
-0.023778
0.013326
0.026710
0.048728
0.073147
0.097302
0.099396
0.064781
0.024473
-0.045363
-0.091729
-0.092757
-0.061868
0.006258
0.064913
0.110130
0.104837
0.058578
-0.022736
-0.079292
-0.118992
-0.120595
-0.066105
0.004349
0.068335
0.128446
0.141447
0.160539
0.156747
0.123966
0.085370
0.008323
-0.050888
-0.107534
-0.120676
-0.070162
0.024489
0.139452
0.236568
0.275687
0.245267
0.162848
0.028267
-0.112957
-0.190252
-0.193524
-0.146586
-0.054304
0.004222
0.038944
0.012963
-0.039413
-0.124728
-0.239258
-0.340048
-0.434836
-0.434648
-0.400615
-0.287376
-0.144162
0.036092
0.195756
0.290101
0.297042
0.235074
0.114343
-0.024422
-0.116125
-0.188957
-0.181143
-0.144029
-0.095602
-0.059803
-0.020486
-0.011097
-0.020671
-0.033214
-0.048948
-0.034735
-0.044731
-0.044940
-0.043689
0.002110
0.060453
0.179178
0.257911
0.345683
-0.135690
-0.041126
0.027554
0.041772
0.002924
-0.012618
-0.015707
0.012489
0.055133
0.087026
0.105025
0.056065
-0.010923
-0.066518
-0.096227
-0.086905
-0.051573
0.018485
0.060907
0.065371
0.038592
-0.058028
-0.155389
-0.206205
-0.231670
-0.201317
-0.122379
-0.058529
0.001797
0.033520
0.025820
0.031042
0.031928
0.024734
0.000161
0.017833
0.039989
0.026043
0.046841
0.071170
0.075726
0.098471
0.093278
0.079373
0.047545
-0.004561
-0.036468
-0.041373
-0.001681
0.000628
0.023905
0.018363
-0.031523
-0.048379
-0.056788
-0.033075
0.013537
0.032664
0.052908
0.001811
-0.080505
-0.174319
-0.237936
-0.266441
-0.227264
-0.147650
-0.040162
0.033388
0.083079
0.107292
0.083792
0.061090
0.053376
0.046504
0.041554
0.002108
-0.102077
-0.238681
-0.374139
-0.454640
-0.412498
-0.251770
-0.074741
0.121317
0.266356
0.310675
0.258010
0.136920
0.066863
0.006029
-0.028688
-0.013362
-0.011706
-0.025853
-0.067864
-0.135931
-0.168840
-0.169432
-0.133571
-0.063855
-0.010083
0.028465
0.035450
0.028292
0.045089
0.049676
0.092134
0.169048
0.293319
-0.028518
-0.089152
-0.078245
-0.016208
0.048278
0.116094
0.131469
0.136353
0.079176
0.015837
-0.037185
-0.040658
-0.014114
0.037004
0.077656
0.111949
0.086505
0.014260
-0.068198
-0.144985
-0.159464
-0.137825
-0.081731
-0.029696
-0.002954
-0.010552
-0.038479
-0.055932
-0.042308
-0.014260
0.018973
0.069036
0.111194
0.119755
0.095444
0.065220
0.000698
-0.042661
-0.061146
-0.081233
-0.078252
-0.063872
-0.031000
0.005086
0.056902
0.088871
0.091279
0.064323
0.028638
-0.021439
-0.042245
-0.028636
-0.007275
0.030671
0.042787
0.039826
0.044487
0.010552
0.028126
0.028997
0.015307
0.027133
0.003103
-0.048292
-0.088849
-0.112157
-0.125524
-0.078549
-0.027343
0.044675
0.079754
0.068404
0.018006
-0.086509
-0.217783
-0.304971
-0.388312
-0.414349
-0.384754
-0.303677
-0.185267
-0.077288
0.048254
0.116029
0.159784
0.142183
0.119056
0.075419
0.032014
-0.023703
-0.084326
-0.145611
-0.184616
-0.174601
-0.108127
0.016269
0.148498
0.234903
0.249105
0.163170
0.019972
-0.158701
-0.270573
-0.313312
-0.271272
-0.177116
-0.006352
0.170168
0.382528
-0.044006
-0.021861
-0.009215
0.043539
-0.219521
-0.088155
-0.117667
-0.029508
-0.005717
0.019969
-0.118435
-0.081711
0.033339
-0.002276
0.060888
0.028581
-0.377308
-0.089805
-0.027364
-0.039880
-0.000297
-0.056854
-0.138922
-0.081121
0.016742
0.007151
-0.029308
-0.004630
-0.242294
-0.080815
0.046639
0.008943
-0.020776
-0.000132
-0.283544
-0.088043
0.037420
-0.022640
0.039243
0.008786
-0.319997
-0.086121
0.142077
0.008108
-0.062182
-0.053957
-0.297105
-0.080170
0.234738
0.010090
-0.044360
-0.061343
-0.393769
-0.089652
0.006099
-0.023915
0.026826
-0.011816
0.017601
0.042973
0.010339
0.045767
0.076804
-0.063091
-0.060327
-0.070878
-0.095079
-0.118889
-0.140491
-0.158561
-0.170287
-0.178877
-0.176848
-0.165069
-0.139225
-0.111371
-0.079317
-0.044906
-0.024995
-0.001888
0.011263
0.019671
0.021891
0.025138
0.027239
0.019691
0.006890
-0.016541
-0.032198
-0.062237
-0.093697
-0.126593
-0.168665
-0.192276
-0.202072
-0.192012
-0.176784
-0.131677
-0.093435
-0.043654
-0.009532
0.011689
0.027783
0.042291
0.042755
0.054761
0.054035
0.063139
0.062283
0.052104
0.037729
0.022271
0.006049
0.002458
-0.007062
-0.007856
-0.018131
-0.015414
-0.025256
-0.039704
-0.038982
-0.040915
-0.045711
-0.034751
-0.031888
-0.035266
-0.037643
-0.034259
-0.045553
-0.045636
-0.050326
-0.052431
-0.055980
-0.045127
-0.024248
-0.004836
0.006704
0.019381
0.032523
0.027382
0.030638
0.024481
0.012225
0.018848
0.016408
0.023853
0.023423
0.022416
0.010696
-0.010119
-0.023322
-0.054951
-0.072262
-0.105033
-0.117872
-0.142695
-0.166855
-0.188995
-0.205189
-0.211766
-0.221283
-0.206642
-0.180000
-0.157647
-0.124096
-0.107470
-0.108972
-0.119781
-0.135727
-0.161139
-0.187900
-0.196446
0.068957
0.040786
0.020117
0.017036
0.009994
0.029499
0.045831
0.062713
0.068549
0.080036
0.080999
0.075983
0.066305
0.058112
0.046648
0.037445
0.039349
0.035575
0.032271
0.030546
0.017330
0.016876
0.004370
-0.006364
-0.016006
-0.021068
-0.026791
-0.018789
-0.009703
-0.005476
0.004984
0.013778
0.019614
0.008767
-0.010264
-0.023048
-0.055148
-0.069770
-0.091903
-0.108350
-0.111827
-0.113606
-0.109165
-0.097186
-0.088549
-0.071643
-0.066947
-0.046725
-0.035623
-0.019024
0.013523
0.036431
0.057721
0.066987
0.080058
0.078510
0.072816
0.067502
0.053846
0.038017
0.019353
0.005368
-0.014447
-0.048878
-0.067576
-0.087115
-0.090691
-0.100000
-0.109840
-0.109406
-0.112144
-0.119049
-0.131828
-0.134661
-0.124042
-0.121998
-0.097716
-0.084653
-0.061230
-0.038625
-0.019362
0.000600
0.004339
-0.001391
-0.019165
-0.026860
-0.042724
-0.056706
-0.069462
-0.076704
-0.078626
-0.070785
-0.069147
-0.075799
-0.069487
-0.070869
-0.083793
-0.083857
-0.086864
-0.091336
-0.089230
-0.080069
-0.080031
-0.076457
-0.076326
-0.086085
-0.112397
-0.135716
-0.161306
-0.107209
-0.101089
-0.109579
-0.118605
-0.124637
-0.133157
-0.128567
-0.112182
-0.100005
-0.087658
-0.069145
-0.055215
-0.051580
-0.049138
-0.044197
-0.047091
-0.045752
-0.057256
-0.063068
-0.077563
-0.078411
-0.083798
-0.086711
-0.081309
-0.068304
-0.066246
-0.068111
-0.059077
-0.059574
-0.063610
-0.057046
-0.060405
-0.043363
-0.042430
-0.030339
-0.017203
-0.005819
0.012817
0.017603
0.026315
0.025876
0.023192
0.017153
0.024655
0.033160
0.048726
0.057773
0.073338
0.071116
0.066293
0.048457
0.024548
-0.002862
-0.018434
-0.020085
-0.014405
-0.001064
0.004604
0.007117
0.010304
0.005870
-0.009094
-0.010266
-0.012847
-0.020236
-0.013528
-0.011559
-0.024874
-0.031367
-0.038099
-0.040903
-0.048969
-0.058346
-0.051756
-0.040086
-0.020420
-0.002847
0.006923
0.015525
0.029676
0.031584
0.019244
0.024087
0.016095
0.014582
0.012827
0.021302
0.023090
0.015312
0.020518
0.019099
0.025835
0.045947
0.060023
0.069669
0.063517
0.065677
0.051414
0.023499
0.012566
-0.004053
-0.003054
0.011639
0.023056
0.037316
0.043680
0.056236
0.048782
0.053815
-0.050683
-0.044017
-0.025983
-0.008299
0.020409
0.042875
0.057535
0.063909
0.071801
0.061813
0.042959
0.017917
-0.004159
-0.034535
-0.061600
-0.073766
-0.091959
-0.096027
-0.088500
-0.080553
-0.055045
-0.033826
-0.004786
0.028707
0.044087
0.065197
0.067400
0.069678
0.071089
0.066329
0.065476
0.062718
0.056138
0.049071
0.054025
0.047604
0.051239
0.037399
0.023518
0.007483
-0.009721
-0.032538
-0.052783
-0.064877
-0.073613
-0.066521
-0.044779
-0.028333
-0.020030
-0.022326
-0.032732
-0.053131
-0.072729
-0.097227
-0.114846
-0.102165
-0.091987
-0.059538
-0.023849
0.020665
0.047740
0.065494
0.069486
0.068729
0.075312
0.068847
0.066494
0.069133
0.066572
0.063115
0.058076
0.044056
0.027012
0.017464
-0.007342
-0.025059
-0.051569
-0.085536
-0.099214
-0.117580
-0.116701
-0.102989
-0.086011
-0.063498
-0.034622
-0.011324
-0.001690
0.010139
0.014921
0.007561
0.007483
0.010411
0.013272
0.011620
0.006469
0.000797
-0.015672
-0.026261
-0.034379
-0.033986
-0.038741
-0.046471
-0.042675
-0.038261
-0.023332
-0.010199
0.009773
0.029398
0.052639
-0.579060
-0.050506
0.195695
-0.027763
0.300049
-0.051172
0.077391
-0.260745
0.091518
-0.146881
0.057971
-0.055768
0.120899
-0.290066
-0.090658
-0.016134
0.112429
-0.058603
-0.157495
-0.188072
-0.181790
0.057332
0.298214
-0.055514
-0.030004
0.154559
-0.156727
0.008265
-0.145764
-0.058596
-0.067123
-0.001463
-0.248904
0.009752
0.135628
-0.050776
-0.254673
-0.683020
0.002302
0.396765
0.356603
-0.056459
0.035464
-0.172644
0.016160
-0.318674
0.276594
-0.051808
0.112163
-0.496029
0.244418
-0.091213
0.055160
-0.055371
-0.073017
0.361354
-0.195657
-0.100036
-0.299682
-0.427577
-0.291912
0.033945
-0.203334
-0.088608
-0.087575
-0.076645
-0.055834
-0.043571
-0.052439
-0.078091
-0.132023
-0.179467
-0.208605
-0.220680
-0.181566
-0.137358
-0.100761
-0.055512
-0.015640
-0.007365
0.009726
0.015867
0.005687
-0.020545
-0.046976
-0.077773
-0.098609
-0.086954
-0.051576
-0.012676
0.023102
0.041056
0.053293
0.044110
0.021926
-0.010711
-0.044932
-0.073537
-0.117277
-0.171340
-0.186056
-0.217201
-0.227251
-0.218613
-0.161851
-0.103694
-0.046627
0.028313
0.053174
0.090601
0.092513
0.038847
0.015637
-0.053576
-0.122916
-0.190536
-0.241154
-0.244227
-0.205793
-0.143301
-0.076412
-0.014920
-0.003053
-0.022115
-0.068829
-0.122489
-0.154223
-0.114027
-0.023301
0.085067
0.165114
0.180606
0.143535
0.046896
-0.065094
-0.173623
-0.226748
-0.217303
-0.136453
-0.042003
0.074440
0.144994
0.178456
0.178277
0.159011
0.139603
0.102163
0.081884
0.060500
0.059820
0.086408
0.112614
0.137934
0.148496
0.112224
0.072569
0.032469
-0.022852
-0.078898
-0.121314
-0.180008
-0.215203
-0.232397
-0.207635
-0.113690
-0.009753
0.101750
0.165474
0.147071
0.027900
-0.152172
-0.323605
-0.012301
-0.011502
-0.033997
-0.045986
-0.065515
-0.070876
-0.065612
-0.038791
-0.001699
0.025180
0.032519
0.030059
0.029539
0.020002
0.004901
-0.022513
-0.032211
-0.034626
-0.043769
-0.034315
-0.017232
0.005680
0.038095
0.069358
0.103285
0.115052
0.100456
0.079521
0.033348
-0.023695
-0.067812
-0.094436
-0.102390
-0.091676
-0.056722
-0.010770
0.031256
0.057394
0.096793
0.115861
0.119310
0.118706
0.087652
0.056185
0.010485
-0.023898
-0.050253
-0.090812
-0.093463
-0.085984
-0.062258
-0.056510
-0.036081
-0.037796
-0.033431
-0.057170
-0.067863
-0.067954
-0.080792
-0.084049
-0.086614
-0.099145
-0.128492
-0.139694
-0.142225
-0.117445
-0.073171
-0.024579
0.038317
0.069973
0.091867
0.077277
0.032875
-0.020583
-0.086679
-0.139716
-0.159010
-0.145653
-0.090254
-0.007747
0.073571
0.155227
0.215943
0.250632
0.219734
0.158936
0.061731
-0.007724
-0.062108
-0.081125
-0.064089
-0.055131
-0.029590
-0.013872
-0.005474
0.001122
-0.005982
-0.016351
-0.028436
-0.016377
-0.021296
-0.004363
0.028196
0.064662
0.088101
0.064350
0.006399
-0.062812
-0.158044
0.189063
0.034168
-0.038991
-0.046812
-0.005152
0.036414
0.052272
0.002466
-0.077342
-0.196918
-0.290775
-0.341864
-0.354093
-0.293256
-0.178567
-0.058922
0.053669
0.115700
0.144802
0.106349
0.022364
-0.045106
-0.120238
-0.163756
-0.157778
-0.145701
-0.127241
-0.121958
-0.132387
-0.164081
-0.179501
-0.173811
-0.145214
-0.096385
-0.041903
0.022252
0.050220
0.059165
0.036958
0.015206
-0.021380
-0.018527
-0.023063
-0.017853
-0.016960
-0.014783
-0.028578
-0.044102
-0.050392
-0.034547
-0.011213
0.001961
0.002997
-0.019382
-0.039696
-0.041121
-0.056337
-0.052471
-0.027135
-0.009666
0.018447
0.015959
0.018872
-0.004442
-0.037967
-0.047933
-0.065305
-0.062763
-0.062065
-0.027477
-0.002124
0.049984
0.098481
0.112522
0.147512
0.149070
0.122643
0.103363
0.085755
0.050540
0.004314
-0.025692
-0.078972
-0.087544
-0.082861
-0.047757
0.016412
0.064184
0.121001
0.137906
0.124512
0.081264
-0.005618
-0.086214
-0.132158
-0.155263
-0.121048
-0.057944
0.016466
0.108427
0.137418
0.149365
0.114319
0.061430
-0.011541
-0.070135
-0.102144
-0.110199
-0.103940
-0.178996
-0.110550
-0.036188
0.027016
0.084776
0.071566
0.024433
-0.058617
-0.132797
-0.167625
-0.174099
-0.129260
-0.061686
0.003266
0.046279
0.088353
0.086052
0.072780
0.034866
-0.017296
-0.053416
-0.103349
-0.129246
-0.110974
-0.079990
-0.024957
0.017214
0.094446
0.126988
0.148750
0.093965
0.027774
-0.080407
-0.160591
-0.214175
-0.212017
-0.180578
-0.112941
-0.054898
-0.007856
0.014037
-0.013264
-0.055912
-0.120667
-0.169961
-0.192570
-0.160289
-0.110759
-0.046917
0.030661
0.110821
0.175775
0.231755
0.263302
0.286707
0.272512
0.239920
0.200938
0.133769
0.087169
0.081142
0.096735
0.154661
0.247343
0.366787
0.480165
0.582418
0.655192
0.684965
0.670736
0.630421
0.568143
0.519024
0.490684
0.482076
0.483186
0.496489
0.514275
0.482941
0.436104
0.347215
0.249927
0.141715
0.029484
-0.043354
-0.067528
-0.055084
-0.013814
0.058297
0.123098
0.173291
0.194862
0.179350
0.138953
0.074848
-0.001830
-0.077714
-0.134083
-0.154920
-0.138777
-0.081644
-0.001030
0.100901
0.187423
0.260573
0.285757
0.272987
0.199354
0.069243
0.078738
-0.042996
0.361955
0.001586
0.068905
0.158378
-0.099473
0.207911
0.254844
0.072988
0.039504
0.160776
0.092633
0.108679
0.182265
-0.113834
0.204386
0.160960
-0.275271
-0.303103
1.027181
-0.191771
0.209414
0.159710
0.114735
-0.005525
0.319816
-0.091997
0.139367
0.153479
0.076750
-0.027490
0.232634
0.100481
0.079550
0.153776
-0.029190
0.067352
0.374242
0.050663
0.010739
0.151652
0.095182
-0.111105
0.256557
-0.031952
0.268766
0.157426
0.124206
-0.164787
0.352379
0.120855
0.032155
0.155353
0.087381
-0.094799
0.289365
-0.068163
0.298665
0.126883
-0.110983
0.212650
0.096011
-0.315148
-0.165313
-0.069242
-0.016456
-0.038186
-0.089045
-0.141271
-0.170235
-0.176486
-0.113594
-0.057959
0.006638
0.072368
0.099349
0.100461
0.087659
0.053927
0.021095
-0.015826
-0.050368
-0.084653
-0.082093
-0.078291
-0.068487
-0.005096
0.064677
0.129593
0.178901
0.192252
0.160644
0.089313
0.009091
-0.041431
-0.026858
0.006884
0.053934
0.071101
0.033941
-0.071586
-0.194597
-0.336907
-0.439841
-0.458309
-0.420198
-0.301313
-0.172150
-0.039618
0.093678
0.169685
0.199441
0.196829
0.192903
0.132047
0.074932
0.046792
0.037557
0.066610
0.119517
0.171504
0.190320
0.160005
0.072418
-0.011915
-0.073431
-0.087541
-0.062852
-0.016590
0.012702
0.046729
0.048666
0.072094
0.070335
0.054178
0.039196
0.007420
-0.018599
-0.024380
-0.012819
0.000328
0.015656
0.011563
0.012515
-0.021004
-0.063333
-0.078385
-0.108212
-0.106856
-0.101183
-0.097665
-0.088549
-0.084114
-0.042627
0.010142
0.048002
0.076280
0.065253
0.027811
-0.025243
-0.103512
-0.119461
-0.100632
-0.048087
0.008347
0.062005
0.069671
0.052463
0.008212
-0.018718
-0.051726
0.010964
-0.034848
-0.081821
-0.117577
-0.115294
-0.089989
-0.059811
-0.033826
-0.007127
-0.005796
-0.002946
0.008644
0.003530
0.011435
0.029099
0.038534
0.028660
0.013372
-0.029450
-0.042022
-0.047832
-0.029242
0.006369
0.076028
0.143118
0.186911
0.191507
0.164419
0.089351
0.017930
-0.046815
-0.062611
-0.039223
0.021342
0.062282
0.077518
0.050067
-0.017390
-0.116348
-0.248657
-0.355808
-0.440011
-0.493538
-0.508837
-0.467334
-0.379673
-0.261098
-0.125254
-0.008990
0.115270
0.168781
0.214723
0.215201
0.220187
0.219006
0.232069
0.235659
0.236524
0.211252
0.171738
0.093584
0.028085
-0.017147
-0.045588
-0.045664
-0.030398
-0.011544
0.000126
0.015682
0.023521
0.024860
0.012723
0.008411
0.010045
-0.015137
-0.055665
-0.078928
-0.103354
-0.109307
-0.072996
-0.051965
-0.023857
-0.021678
-0.031363
-0.055982
-0.059527
-0.049390
-0.012803
0.030434
0.069915
0.095942
0.087591
0.064818
0.038686
0.016932
0.002087
0.011251
0.048102
0.068722
0.080831
0.070360
0.049139
0.016466
-0.000275
0.000254
-0.002212
0.008464
-0.025269
-0.112545
-0.298146
-0.198650
-0.101506
-0.043500
-0.022358
-0.046855
-0.099996
-0.170522
-0.239618
-0.268170
-0.269322
-0.246175
-0.210108
-0.156428
-0.122094
-0.082206
-0.029998
0.004882
-0.010143
-0.031865
-0.085192
-0.148169
-0.202924
-0.205976
-0.193351
-0.136430
-0.083908
-0.020534
0.013228
0.026821
0.032410
0.014019
-0.022391
-0.073266
-0.143262
-0.189490
-0.154499
-0.040042
0.179527
0.485652
0.788151
1.079517
1.242902
1.230084
1.063560
0.808847
0.472499
0.174564
-0.037552
-0.145051
-0.173666
-0.120351
-0.045088
0.022685
0.050353
0.054340
0.013919
-0.032295
-0.098252
-0.149664
-0.160294
-0.167147
-0.137548
-0.076774
-0.005691
0.049008
0.060804
0.044036
-0.016036
-0.094241
-0.138774
-0.170393
-0.145137
-0.105341
-0.065031
0.000273
0.031580
0.052178
0.024595
-0.012660
-0.065189
-0.131553
-0.157410
-0.164609
-0.137738
-0.097238
-0.039349
0.001250
0.041972
0.067698
0.074454
0.044584
-0.007344
-0.057639
-0.115954
-0.141627
-0.134134
-0.089800
-0.031730
0.014200
0.038853
0.049832
0.028800
-0.014768
-0.060781
-0.088423
-0.099127
-0.096608
-0.063871
-0.122016
-0.070552
-0.046550
-0.008265
-0.021416
-0.052983
-0.097034
-0.155022
-0.206768
-0.198582
-0.139343
-0.039736
0.073397
0.163773
0.200799
0.181174
0.118179
0.042081
-0.033284
-0.078251
-0.098379
-0.105957
-0.068722
-0.015671
0.078675
0.151736
0.227234
0.269517
0.252786
0.205533
0.121099
0.053932
0.002567
-0.005753
0.010009
0.005517
-0.034995
-0.108681
-0.205431
-0.311944
-0.405966
-0.459608
-0.458951
-0.387375
-0.290373
-0.175991
-0.077482
0.006990
0.061509
0.078363
0.091259
0.085517
0.103288
0.144470
0.196440
0.246627
0.247291
0.236719
0.196636
0.135770
0.075414
0.022740
-0.031077
-0.058137
-0.106017
-0.131016
-0.152289
-0.149274
-0.111646
-0.037634
0.038290
0.105951
0.141281
0.147056
0.112896
0.046855
-0.007684
-0.042502
-0.059607
-0.053084
-0.038723
-0.016275
-0.007867
0.010664
0.030986
0.045426
0.060974
0.035088
0.005680
-0.035835
-0.069073
-0.096058
-0.073821
-0.011152
0.045481
0.101645
0.110763
0.108152
0.077079
0.049201
0.046629
0.035571
0.037543
0.043230
0.009638
-0.047022
-0.137678
-0.228857
-0.296595
0.080784
0.546764
-0.101864
-0.237500
-0.035399
0.081704
-0.000015
-0.054328
0.017278
0.239954
0.036220
0.087649
0.156099
-0.308155
0.000065
-0.028599
0.432206
0.078428
-0.026905
0.045786
0.210254
-0.121954
0.136762
0.085773
-0.023313
0.076019
-0.169146
-0.000559
0.347154
0.084703
0.000097
-0.052476
-0.293768
-0.070463
0.673278
0.084419
0.023641
0.416906
-0.151888
-0.382954
0.346344
0.080639
-0.015191
-0.159340
0.102753
0.167441
0.156206
0.081740
-0.067440
-0.179821
-0.277376
0.539459
0.230465
0.078263
0.052477
-0.045912
-0.070780
0.078768
-0.053146
-0.182572
-0.137657
-0.268866
0.050078
-0.214235
-0.217591
-0.194558
-0.124711
-0.045987
0.025813
0.074108
0.092161
0.069657
0.011156
-0.060530
-0.122884
-0.156575
-0.187011
-0.163534
-0.141829
-0.096612
-0.057489
-0.024196
-0.008235
-0.014413
-0.026957
-0.051549
-0.075247
-0.099971
-0.105260
-0.081582
-0.030804
0.021752
0.054324
0.077876
0.079809
0.034842
-0.032037
-0.102521
-0.169285
-0.219487
-0.225386
-0.205902
-0.142287
-0.063759
-0.006380
0.035649
0.045770
0.009417
-0.060094
-0.138647
-0.204135
-0.229205
-0.220818
-0.177689
-0.093132
-0.005994
0.075902
0.122498
0.131004
0.123390
0.093241
0.051459
0.032694
0.035095
0.049335
0.056516
0.088161
0.085669
0.071466
0.022606
-0.032891
-0.110904
-0.178396
-0.231336
-0.232131
-0.196740
-0.117647
-0.027855
0.065679
0.113853
0.125116
0.076847
0.037825
-0.036897
-0.076387
-0.077468
-0.057377
0.017172
0.108210
0.184679
0.246803
0.253787
0.219027
0.153056
0.049830
-0.042721
-0.128020
-0.162858
-0.160505
-0.111658
-0.018511
0.052729
0.125124
0.144756
0.132113
0.064499
-0.038842
-0.154634
-0.245792
-0.294826
-0.244355
-0.120177
-0.055376
-0.063179
-0.068731
-0.092094
-0.105809
-0.110359
-0.114346
-0.077771
-0.046130
0.017266
0.051739
0.077494
0.068825
0.041828
-0.008859
-0.054609
-0.083197
-0.093369
-0.095216
-0.077930
-0.042516
-0.020695
-0.005723
-0.003287
-0.008856
-0.034314
-0.071334
-0.107073
-0.155641
-0.171614
-0.171071
-0.146055
-0.095233
-0.035020
0.033815
0.088886
0.111569
0.118226
0.073233
0.004571
-0.067443
-0.135868
-0.159897
-0.167618
-0.146440
-0.115186
-0.077946
-0.049453
-0.033435
-0.013069
0.013065
0.061724
0.110767
0.148818
0.171740
0.166040
0.121588
0.071013
0.008395
-0.034429
-0.068589
-0.073902
-0.062148
-0.009002
0.056358
0.141873
0.204047
0.267542
0.280794
0.280303
0.264175
0.250957
0.253654
0.287925
0.345091
0.384434
0.412795
0.404580
0.368452
0.289842
0.212272
0.145009
0.081517
0.035007
0.014242
-0.012597
-0.022234
-0.031467
-0.046367
-0.053119
-0.072628
-0.085272
-0.088448
-0.102372
-0.092855
-0.083689
-0.052830
0.000473
0.041056
0.074270
0.086584
0.070985
0.024343
-0.034471
-0.091932
-0.132055
-0.142172
-0.138210
-0.111387
0.210528
0.186705
0.149347
0.080376
0.011312
-0.056153
-0.106790
-0.131259
-0.132578
-0.103339
-0.071342
-0.033841
0.003788
0.019473
0.043329
0.053887
0.068573
0.053106
0.036427
0.000512
-0.027467
-0.046113
-0.040725
-0.010806
0.025122
0.069253
0.085306
0.074588
0.032500
-0.017987
-0.057012
-0.077330
-0.087818
-0.084979
-0.063436
-0.040236
-0.023052
-0.018523
-0.020867
-0.011916
-0.000237
0.011211
0.014553
-0.006216
-0.023615
-0.058724
-0.085697
-0.085955
-0.068255
-0.035003
0.005914
0.034555
0.054488
0.073326
0.079324
0.099110
0.140759
0.184688
0.216059
0.234022
0.239125
0.234737
0.215793
0.202719
0.197696
0.203639
0.192251
0.154967
0.113511
0.081414
0.064051
0.090020
0.135121
0.188445
0.244610
0.262561
0.244853
0.185027
0.126897
0.080523
0.050522
0.041169
0.044045
0.042661
0.041122
0.023049
-0.001493
-0.000042
-0.004092
0.009359
0.012852
0.012887
-0.009833
-0.047948
-0.108991
-0.156897
-0.213817
-0.235071
-0.221404
-0.205440
-0.170154
-0.139916
-0.118899
-0.091902
-0.084387
-0.071476
-0.037592
0.010709
0.059136
-0.106254
-0.120253
-0.128219
-0.118257
-0.084986
-0.044600
0.009874
0.052393
0.071369
0.059035
0.037146
0.017892
-0.009063
-0.003924
0.022420
0.048811
0.086572
0.094040
0.107222
0.096399
0.072216
0.053003
0.047991
0.047098
0.047068
0.048012
0.046308
0.045452
0.028989
0.008880
-0.012893
-0.025188
-0.042206
-0.056407
-0.069687
-0.082069
-0.085762
-0.094266
-0.093472
-0.107325
-0.122663
-0.137094
-0.150724
-0.138470
-0.111877
-0.079004
-0.037748
0.014085
0.067189
0.091635
0.094852
0.071743
0.029531
-0.011999
-0.037091
-0.040260
-0.003610
0.039395
0.094026
0.131799
0.138341
0.117660
0.083595
0.044198
0.024218
0.022673
0.014911
0.043912
0.063405
0.074637
0.081990
0.069055
0.059281
0.022945
-0.019956
-0.062051
-0.102655
-0.152222
-0.172081
-0.161635
-0.107475
-0.039195
0.040994
0.102192
0.136561
0.130091
0.120145
0.092092
0.081984
0.079166
0.086589
0.110075
0.123841
0.127858
0.103421
0.103342
0.113267
0.140206
0.180727
0.198850
0.197797
0.173226
0.116016
0.072352
0.030848
0.002186
0.006198
0.037362
0.056657
0.118688
0.121954
-0.202959
-0.175224
0.402560
0.089216
0.061976
-0.182775
0.362712
-0.314104
0.337788
0.086694
0.084883
-0.194520
0.080612
-0.194441
0.470142
0.087719
-0.144279
-0.053761
0.447981
-0.093469
0.100057
0.081852
0.096280
-0.106982
0.367220
-0.295410
0.197876
0.087810
0.023335
-0.174185
-0.129902
-0.090798
0.638268
0.081724
-0.155583
0.031553
-0.063951
0.024840
0.425304
0.086889
0.065751
0.136576
0.072609
-0.430212
0.423245
0.086915
0.221740
-0.015351
-0.186343
-0.032922
0.275300
0.088674
-0.008496
-0.043472
-0.117721
-0.007006
-0.139054
-0.032064
-0.136894
-0.140566
-0.063037
-0.011524
0.001107
-0.018708
-0.035304
-0.073396
-0.098509
-0.104040
-0.088246
-0.064719
-0.038151
0.002624
0.023038
0.041780
0.039620
0.030803
0.030568
0.025432
0.020663
0.022829
0.008409
0.000000
0.010740
0.025304
0.061840
0.096935
0.149392
0.179170
0.182718
0.146026
0.089294
0.026726
-0.026853
-0.038395
-0.031746
-0.011112
0.034341
0.064410
0.077412
0.074026
0.051955
0.025852
-0.005456
-0.030527
-0.052683
-0.060940
-0.026438
0.025303
0.089499
0.152596
0.211501
0.224789
0.206904
0.164341
0.112569
0.074927
0.072783
0.104266
0.170200
0.252212
0.298489
0.312903
0.287411
0.239238
0.160396
0.067326
-0.010892
-0.057004
-0.088995
-0.080387
-0.051517
-0.011529
0.012905
0.003206
-0.029327
-0.090547
-0.158317
-0.196086
-0.198042
-0.150752
-0.077210
0.021000
0.142699
0.224350
0.288971
0.300871
0.258267
0.184996
0.089797
-0.008317
-0.082094
-0.101658
-0.108702
-0.072746
-0.024587
0.021234
0.060735
0.071318
0.073575
0.078459
0.083732
0.099974
0.104862
0.112905
0.117114
0.114289
0.113555
0.128258
0.162029
0.221678
0.173043
0.169234
0.153264
0.126836
0.099486
0.081622
0.064255
0.054796
0.054330
0.047122
0.040706
0.027178
0.009967
-0.028361
-0.048718
-0.087366
-0.106682
-0.113231
-0.100076
-0.072011
-0.031732
0.003446
0.018945
0.012245
-0.010568
-0.052378
-0.104620
-0.154550
-0.193142
-0.211286
-0.200056
-0.170111
-0.121656
-0.082528
-0.028295
0.007559
0.050692
0.068882
0.074145
0.054397
0.039158
0.000398
-0.039686
-0.063937
-0.080166
-0.077186
-0.061674
-0.045583
-0.013949
0.003229
0.009597
0.001730
-0.015070
-0.032307
-0.036847
-0.027526
0.001981
0.037467
0.086098
0.132305
0.136025
0.133884
0.092466
0.043357
0.013331
-0.018914
-0.021201
-0.004169
0.028082
0.058715
0.088436
0.111769
0.135401
0.146935
0.140178
0.132486
0.112688
0.089131
0.085477
0.083319
0.104124
0.119537
0.148107
0.154613
0.171221
0.172636
0.173581
0.161336
0.141755
0.114508
0.091169
0.056927
0.026996
-0.004390
-0.035591
-0.049847
-0.062835
-0.075553
-0.074818
-0.068402
-0.062281
-0.050682
-0.042062
-0.030259
-0.013966
-0.023370
-0.025339
-0.032128
-0.037114
-0.059255
-0.071254
-0.091518
-0.121192
-0.147848
-0.181796
-0.198203
-0.189714
-0.188506
-0.177194
-0.174888
-0.148787
-0.129355
-0.104624
-0.092946
-0.079176
-0.089885
-0.107312
-0.135079
-0.165139
-0.188592
-0.191784
-0.169375
-0.131885
-0.083781
-0.016627
0.042788
0.111366
0.154320
0.189336
0.188405
0.153268
0.099990
0.026024
-0.046558
-0.092652
-0.109079
-0.098196
-0.051068
0.005960
0.066333
0.129231
0.162985
0.164043
0.141016
0.088773
0.017438
-0.056554
-0.105323
-0.109114
-0.073748
-0.023613
0.038718
0.084952
0.112407
0.097376
0.049009
-0.013041
-0.085589
-0.144660
-0.147812
-0.123178
-0.041493
0.052267
0.136500
0.175801
0.162197
0.102360
-0.000253
-0.099651
-0.147268
-0.138133
-0.078303
-0.006829
0.070200
0.116708
0.137271
0.110036
0.055275
-0.013182
-0.094048
-0.169698
-0.232726
-0.249223
-0.245058
-0.192888
-0.123394
-0.041250
0.035460
0.074710
0.087202
0.058450
0.009465
-0.024081
-0.055544
-0.044745
-0.024189
0.013010
0.051523
0.058981
0.059325
0.034246
-0.013164
-0.066283
-0.093286
-0.102832
-0.080074
-0.036123
0.027823
-0.079958
0.024755
0.089860
0.082029
0.029013
-0.028526
-0.086099
-0.105239
-0.084055
-0.029499
0.053983
0.136587
0.197932
0.216305
0.184522
0.104195
0.011599
-0.095260
-0.178828
-0.236133
-0.245237
-0.222979
-0.165434
-0.096089
-0.040697
0.007157
0.041005
0.038583
0.031112
0.000816
-0.013739
-0.019649
-0.003492
0.026682
0.078992
0.140334
0.167882
0.187081
0.180334
0.133992
0.080793
0.017024
-0.022864
-0.053888
-0.061941
-0.042705
-0.018711
-0.008947
-0.004754
-0.008445
-0.028910
-0.059058
-0.080874
-0.078125
-0.063380
-0.034391
0.007078
0.045839
0.081869
0.112850
0.128179
0.146360
0.136097
0.129450
0.110067
0.085467
0.049487
0.022194
0.004744
-0.011487
0.000274
0.011508
0.018114
0.019289
-0.006620
-0.031272
-0.066631
-0.074040
-0.077518
-0.072022
-0.055052
-0.041842
-0.045374
-0.062050
-0.076882
-0.101870
-0.103504
-0.084545
-0.063966
-0.038852
-0.014562
-0.003339
0.008490
0.007949
0.019287
0.032087
0.033809
0.027571
0.014479
-0.003935
-0.016443
-0.024915
-0.031043
0.000909
0.022738
0.061131
0.096236
0.097509
0.086394
-0.000595
0.007001
-0.089105
-0.039643
0.184254
0.015571
0.020758
-0.002115
-0.072441
-0.008193
0.121088
0.014048
-0.000806
0.017391
0.009746
-0.035850
0.068481
0.020161
0.083219
-0.047286
0.005992
-0.042231
0.054376
0.015221
0.005437
0.024058
0.006685
0.003757
0.017619
0.020198
0.034786
-0.015691
-0.003168
0.035246
-0.010785
0.019903
-0.073972
-0.025557
0.019855
0.023414
0.104429
0.019630
0.000794
0.053240
-0.019414
0.024772
-0.015032
0.014736
0.002543
0.171354
-0.049297
-0.052735
-0.014572
0.022541
-0.033991
-0.019568
-0.017150
-0.013029
-0.024382
-0.016414
-0.032136
0.016421
-0.010257
-0.021360
-0.028377
-0.029211
-0.031841
-0.019226
-0.021427
-0.018072
-0.003455
-0.002102
0.015255
0.018816
0.036652
0.048818
0.054884
0.056525
0.053788
0.057986
0.064182
0.067583
0.069688
0.076344
0.084821
0.084778
0.099233
0.107481
0.110827
0.113342
0.113030
0.107188
0.111200
0.108993
0.103440
0.098484
0.082410
0.081529
0.077100
0.073066
0.077057
0.078903
0.086005
0.092416
0.100365
0.102507
0.114012
0.119359
0.128367
0.132475
0.126344
0.131408
0.127681
0.119712
0.111419
0.105116
0.102644
0.092257
0.094307
0.090723
0.073994
0.061323
0.055251
0.039118
0.023512
0.026402
0.030770
0.032211
0.042019
0.052601
0.060807
0.057573
0.060642
0.069029
0.067117
0.068213
0.076087
0.067327
0.052458
0.038783
0.023611
0.015768
0.013323
0.020628
0.035631
0.046822
0.057873
0.065453
0.060841
0.051512
0.027424
0.017622
-0.000870
-0.005655
-0.004280
0.000564
0.017957
0.022883
0.041291
0.048373
0.060176
0.055657
0.053449
0.032802
0.014655
0.002985
-0.024394
-0.037693
-0.034900
-0.034604
-0.039090
-0.026648
-0.019686
-0.019269
-0.022070
-0.017267
-0.012752
-0.002268
-0.007144
0.003172
0.000606
-0.008110
-0.006044
-0.008778
-0.014963
-0.022247
-0.023603
-0.024232
-0.026895
-0.027023
-0.032210
-0.045135
-0.047818
-0.048443
-0.049630
-0.044386
-0.038696
-0.031418
-0.020684
-0.010278
0.000650
0.017370
0.023338
0.039209
0.036537
0.039315
0.031205
0.029578
0.019104
0.012747
0.016360
0.007803
0.012475
0.005984
-0.001989
-0.010003
-0.011072
-0.019344
-0.016785
-0.009698
-0.010728
-0.000736
0.006009
0.014590
0.024064
0.020707
0.028062
0.022350
0.026906
0.021225
0.024822
0.026512
0.029640
0.035513
0.044384
0.048279
0.056268
0.065605
0.061168
0.048968
0.029357
0.016998
0.005763
-0.005500
-0.011762
-0.022676
-0.019733
-0.007143
-0.001223
0.013764
0.020182
0.030285
0.035706
0.031718
0.030309
0.023773
0.021533
0.021767
0.028093
0.031629
0.045809
0.044629
0.042444
0.042869
0.024640
0.018612
0.003567
-0.017599
-0.025053
-0.033257
-0.031738
-0.025848
-0.023512
-0.002539
0.013525
0.018048
0.034934
0.039513
0.036251
0.028972
0.028049
0.048612
0.059879
0.057172
0.058763
0.049218
0.030977
0.025266
0.010060
0.001764
0.002982
0.010483
0.020572
0.022077
0.024479
0.033324
0.030241
0.044563
0.051432
0.056878
0.059659
0.061335
0.054364
0.044025
0.033157
0.024668
0.021130
0.016529
0.016524
0.018193
0.018873
0.007550
0.006601
-0.005657
-0.016976
-0.027497
-0.039565
-0.039159
-0.045735
-0.038225
-0.032910
-0.030887
-0.025497
-0.014805
-0.003226
-0.003985
0.003721
-0.000815
-0.012972
-0.008668
-0.015347
-0.017315
-0.016007
-0.020507
-0.015990
-0.012790
-0.018044
-0.012359
-0.017894
-0.016384
-0.026129
-0.027488
-0.019300
-0.023520
-0.007782
-0.003534
0.007172
0.006582
0.011161
0.018076
0.017236
0.021294
0.018728
0.034299
0.037840
0.055870
0.066374
0.065105
0.069793
0.058922
0.049773
0.036100
0.028805
0.007194
0.002095
-0.009819
-0.010037
-0.014599
-0.025084
-0.025139
-0.023667
-0.031744
-0.034700
-0.039693
-0.043334
-0.043499
-0.033533
-0.030473
-0.033885
-0.035942
-0.030741
-0.045826
-0.049687
-0.062025
-0.072440
-0.085191
-0.078249
-0.070759
-0.066617
-0.059147
-0.024360
-0.011812
-0.005971
0.004843
0.012780
0.013904
0.021423
0.030770
0.023956
0.028321
0.018702
0.019243
0.015252
0.008591
0.007648
-0.000757
0.008702
0.010860
0.005126
0.007420
0.013784
0.011445
0.006411
0.011465
0.013720
0.014278
0.025798
0.019395
0.012706
0.004066
-0.003003
-0.019561
-0.028774
-0.028933
-0.026988
-0.023270
-0.009893
-0.004443
-0.002164
-0.004761
-0.015208
-0.012910
-0.022607
-0.022919
-0.014350
-0.007665
-0.001318
0.004075
0.003715
0.003825
0.003742
0.009082
0.011109
0.012183
0.014083
0.012321
0.003705
0.003982
0.000369
-0.011513
-0.016150
-0.006283
-0.001981
-0.001750
0.002446
0.004247
0.008386
0.011841
0.006547
-0.006886
-0.009338
-0.013163
-0.029563
-0.027793
-0.043935
-0.045951
-0.054436
-0.058933
-0.055299
-0.061918
-0.058899
-0.059047
-0.057800
-0.055111
-0.055170
-0.045413
-0.039043
-0.040375
-0.029956
-0.012729
-0.003363
0.002424
0.011426
0.007820
0.011413
0.006252
-0.006632
-0.015214
-0.011309
-0.016772
-0.008570
0.003636
0.014491
0.029345
0.038932
0.039351
0.044577
0.032874
0.018040
-0.079633
0.038989
-0.237532
0.283881
0.001390
-0.005142
-0.053934
-0.006431
0.017652
-0.130511
0.178043
0.003534
0.303196
-0.138633
-0.121458
0.363239
-0.401920
-0.001934
-0.149768
-0.055794
0.265161
0.123051
-0.184241
0.001532
0.205388
0.101661
-0.041343
-0.058757
-0.215652
0.001249
-0.463629
0.008096
-0.330376
-0.205468
0.986917
-0.001547
-0.396406
-0.106999
-0.155041
0.087226
0.562476
0.000590
-0.158874
0.131400
-0.226350
0.117718
0.122532
0.002264
-0.132338
-0.084461
-0.158819
0.057380
0.316638
-0.002398
0.090868
0.023172
0.121076
0.048118
-0.031111
-0.203500
-0.170278
0.099109
-0.055641
0.120662
0.018419
-0.056567
-0.091417
-0.094204
-0.106275
-0.083138
-0.080168
-0.057036
-0.037093
-0.028445
-0.036004
-0.058821
-0.104711
-0.122756
-0.124869
-0.093431
-0.029201
0.039318
0.098441
0.119182
0.109986
0.087540
0.028933
-0.016142
-0.042994
-0.067564
-0.067960
-0.065662
-0.046367
-0.026780
0.000612
0.011228
0.024401
0.008625
-0.026024
-0.049260
-0.080373
-0.087537
-0.072889
-0.046267
-0.011769
0.007839
0.008891
0.019011
0.006752
0.013237
0.024845
0.059514
0.084127
0.108847
0.111121
0.104536
0.097445
0.082516
0.088465
0.098768
0.096638
0.100723
0.087910
0.061354
0.044856
0.025077
0.029128
0.047638
0.054031
0.063575
0.065488
0.041182
0.008339
-0.049022
-0.091215
-0.114669
-0.103299
-0.068843
-0.000978
0.059822
0.122214
0.141483
0.148970
0.125632
0.096109
0.065266
0.057567
0.046462
0.040640
0.046549
0.056075
0.047357
0.030319
-0.016413
-0.052443
-0.083521
-0.107446
-0.096605
-0.038356
0.015537
0.067405
0.096306
0.086044
0.051066
0.000955
-0.036035
-0.062134
-0.059806
-0.029994
0.010601
0.068410
0.122940
-0.027795
-0.018954
-0.023650
-0.030876
-0.041795
-0.041065
-0.041518
-0.038140
-0.025228
-0.008235
0.002581
0.012870
0.028634
0.034258
0.039491
0.044494
0.052505
0.058645
0.058030
0.046202
0.028265
0.000478
-0.028150
-0.042461
-0.070817
-0.119424
-0.158748
-0.198603
-0.226844
-0.213735
-0.187445
-0.120586
-0.049996
0.011194
0.058710
0.081960
0.072314
0.060322
0.037426
0.048578
0.064320
0.092886
0.124765
0.123758
0.110783
0.055825
-0.008690
-0.075423
-0.140298
-0.166540
-0.154810
-0.131804
-0.072471
-0.035202
-0.011959
-0.016664
-0.065430
-0.118308
-0.176113
-0.186983
-0.152353
-0.077745
0.024368
0.138267
0.227804
0.285493
0.298795
0.282229
0.240132
0.172824
0.117854
0.058944
0.025288
-0.005762
0.001419
0.028819
0.063775
0.102570
0.120927
0.122303
0.100273
0.061098
0.029763
0.002061
-0.004382
-0.000370
-0.000314
0.015841
0.011804
0.000127
-0.008797
-0.019464
-0.025834
-0.019118
-0.017332
-0.009139
-0.005284
-0.008922
-0.028499
-0.036653
-0.050576
-0.058485
-0.062611
-0.067018
-0.063728
-0.038529
-0.019879
0.003479
0.023180
0.170337
0.112077
0.094120
0.095082
0.115615
0.136645
0.138273
0.113172
0.074086
0.023166
-0.021242
-0.062902
-0.075008
-0.088824
-0.073029
-0.069871
-0.051744
-0.043378
-0.037294
-0.041126
-0.059501
-0.076374
-0.079806
-0.053391
-0.002755
0.063812
0.128011
0.156265
0.143657
0.087521
0.012792
-0.042316
-0.075878
-0.064342
-0.033033
0.013991
0.052484
0.075356
0.079190
0.072996
0.059164
0.030135
-0.011498
-0.054599
-0.080367
-0.095347
-0.078846
-0.060445
-0.036080
-0.018898
-0.014736
-0.026980
-0.039205
-0.046910
-0.042917
-0.036149
-0.034521
-0.037073
-0.035000
-0.031048
-0.009628
0.011656
0.030499
0.027302
0.008113
-0.030817
-0.085316
-0.134922
-0.150094
-0.124697
-0.070490
0.014884
0.112814
0.183659
0.231654
0.233957
0.202683
0.145940
0.097911
0.057406
0.057959
0.076549
0.088158
0.094000
0.081577
0.040723
0.013504
-0.001754
0.002560
0.022774
0.058007
0.086363
0.109737
0.098518
0.069232
0.028463
-0.019091
-0.048660
-0.048276
-0.039436
-0.032745
-0.022565
-0.032900
-0.052901
-0.055465
-0.065491
-0.055507
-0.051143
-0.053944
-0.111572
-0.060315
-0.024368
0.002281
0.039949
0.061439
0.082782
0.084065
0.083505
0.065668
0.043661
0.033324
0.007161
-0.005057
-0.021715
-0.026755
-0.013559
-0.017784
-0.019027
-0.013384
-0.018311
-0.039269
-0.052037
-0.062566
-0.056810
-0.038508
0.000801
0.057949
0.124609
0.157551
0.171134
0.135485
0.080305
-0.004949
-0.081447
-0.139020
-0.152352
-0.141098
-0.085660
-0.016830
0.045113
0.080840
0.112284
0.095865
0.066765
0.001101
-0.049969
-0.108325
-0.142533
-0.166491
-0.141161
-0.108532
-0.059457
-0.015158
0.002994
-0.004608
-0.033435
-0.082159
-0.137299
-0.165783
-0.175984
-0.153503
-0.124025
-0.079276
-0.038528
0.002479
0.031670
0.036275
0.058053
0.055784
0.048514
0.049055
0.042602
0.027390
0.030340
0.012559
-0.011398
-0.029346
-0.052223
-0.070769
-0.083176
-0.075553
-0.057653
-0.013320
0.021298
0.064951
0.091128
0.098144
0.074130
0.049104
0.001485
-0.025125
-0.029264
-0.028045
-0.001661
0.031487
0.048884
0.076684
0.083062
0.101927
0.102986
0.099643
0.111715
0.117507
0.113038
0.094756
0.060297
-0.008880
-0.111865
-0.341172
0.142774
-0.300160
0.206271
0.167850
-0.039697
-0.049838
0.132275
-0.088528
-0.036573
-0.077914
-0.041313
-0.094872
0.194882
0.004855
-0.003953
-0.228546
-0.045600
0.019144
0.071343
-0.239238
0.095603
-0.083426
-0.038436
0.004460
0.046357
0.107822
0.089619
-0.375664
-0.038047
0.327094
-0.018826
-0.247358
0.176192
-0.366472
-0.047715
0.406346
0.156359
-0.130430
0.126693
-0.689770
-0.045634
0.257334
0.259306
-0.218729
-0.048440
-0.378152
-0.044102
-0.044051
-0.164669
-0.069570
0.368386
-0.216526
-0.047114
-0.042615
-0.068018
-0.061624
0.065006
0.143932
0.188150
0.215945
0.053091
0.072611
0.223169
0.211737
0.168011
0.106154
0.047587
-0.014513
-0.033752
-0.038931
-0.021408
0.009565
0.045662
0.080915
0.090548
0.087110
0.054162
0.013117
-0.021550
-0.069501
-0.094515
-0.109668
-0.091469
-0.058728
-0.007712
0.032034
0.049077
0.052286
0.018613
-0.010372
-0.037269
-0.064901
-0.064645
-0.039148
0.004896
0.045013
0.075107
0.088822
0.070392
0.023759
-0.037934
-0.121400
-0.184735
-0.233436
-0.264076
-0.267588
-0.254497
-0.215377
-0.175016
-0.151298
-0.118011
-0.115325
-0.114245
-0.144630
-0.171138
-0.209951
-0.230596
-0.256672
-0.262776
-0.251254
-0.213176
-0.182699
-0.132021
-0.085304
-0.042588
0.005557
0.037580
0.063290
0.067066
0.050595
0.022672
-0.031472
-0.070466
-0.119278
-0.135552
-0.149618
-0.147781
-0.143793
-0.132854
-0.115422
-0.113464
-0.118042
-0.104795
-0.099834
-0.082035
-0.061939
-0.044498
-0.040758
-0.020572
-0.006756
0.037234
0.083319
0.121726
0.160351
0.177740
0.156257
0.096357
0.007851
-0.079730
-0.157671
-0.189332
-0.178124
-0.137186
-0.091173
-0.041348
-0.013412
0.004072
0.015434
0.044827
0.094291
0.169191
0.070976
0.000072
-0.030049
-0.019719
0.002682
0.024127
0.030961
0.005679
-0.016930
-0.060799
-0.094954
-0.115877
-0.101149
-0.080415
-0.038641
0.003685
0.031202
0.037009
0.034289
-0.003367
-0.059114
-0.134526
-0.183477
-0.211629
-0.196173
-0.140102
-0.071191
0.007485
0.094544
0.143710
0.170780
0.165768
0.152734
0.118415
0.078139
0.039052
0.002839
-0.036839
-0.083180
-0.115851
-0.147957
-0.159600
-0.151651
-0.108162
-0.062212
0.002264
0.078544
0.117435
0.143514
0.129546
0.103550
0.055316
0.015450
-0.011881
-0.015463
-0.005129
0.016262
0.046565
0.083090
0.097789
0.107268
0.091150
0.075726
0.056630
0.034978
0.028308
0.036428
0.047228
0.064331
0.082067
0.113271
0.125041
0.145542
0.147307
0.156262
0.156174
0.142407
0.133578
0.107076
0.092762
0.078102
0.079317
0.080029
0.097387
0.113870
0.117574
0.104974
0.085299
0.064445
0.028620
0.009094
-0.019778
-0.032151
-0.047603
-0.034824
-0.018505
0.006685
0.048932
0.081078
0.101363
0.115820
0.084877
0.046067
-0.010193
-0.074000
-0.123366
-0.161226
-0.169724
-0.149353
0.208566
0.183737
0.144315
0.085338
0.025476
-0.023577
-0.055910
-0.066890
-0.050088
-0.034470
-0.002074
0.023506
0.049772
0.076735
0.102162
0.122391
0.156807
0.182599
0.214059
0.232480
0.250397
0.254425
0.234405
0.186235
0.127665
0.075418
0.050491
0.039184
0.056257
0.084424
0.114522
0.119977
0.127185
0.104217
0.088597
0.074676
0.066540
0.062147
0.036449
-0.009700
-0.042043
-0.083197
-0.112165
-0.102112
-0.091619
-0.066845
-0.046863
-0.023720
-0.022236
-0.006015
0.011018
0.034852
0.059364
0.091636
0.109002
0.127474
0.126354
0.122845
0.101795
0.060913
0.005102
-0.071465
-0.181535
-0.279857
-0.368070
-0.406259
-0.401955
-0.367031
-0.297836
-0.219314
-0.140048
-0.096043
-0.072158
-0.041724
-0.034015
-0.007131
0.028444
0.040422
0.050345
0.047139
0.019301
-0.025769
-0.055135
-0.090540
-0.095802
-0.096551
-0.085807
-0.080284
-0.058503
-0.034531
-0.005565
0.032107
0.055929
0.090962
0.111435
0.114006
0.110629
0.060189
0.005248
-0.054404
-0.087334
-0.091993
-0.057212
0.003336
0.072537
0.134577
0.177656
0.168333
0.150425
-0.140718
-0.025630
0.057044
0.102053
0.135824
0.127514
0.115795
0.090020
0.057188
0.026695
0.016679
0.012045
0.012372
0.018500
0.024245
0.019619
0.010989
0.001760
-0.005661
-0.002408
0.000078
0.014443
0.027773
0.048872
0.054642
0.071935
0.064304
0.063318
0.063176
0.036041
0.020391
0.006671
-0.002169
0.007164
0.005837
0.033538
0.045402
0.073378
0.089843
0.094741
0.098645
0.093073
0.084426
0.083756
0.084541
0.096576
0.098926
0.088349
0.072178
0.042029
-0.008673
-0.041375
-0.062669
-0.077279
-0.099180
-0.101989
-0.109559
-0.093979
-0.049531
0.004096
0.074040
0.134161
0.179850
0.211772
0.223703
0.211469
0.186540
0.160699
0.110309
0.084052
0.043029
0.005904
-0.006989
-0.011199
-0.013201
-0.002214
-0.017120
-0.029821
-0.052992
-0.066533
-0.067244
-0.070736
-0.055823
-0.033282
-0.022209
-0.018531
-0.034617
-0.044198
-0.039637
-0.042330
-0.023007
-0.005056
0.005136
0.009411
-0.023429
-0.062208
-0.106078
-0.132138
-0.135058
-0.122288
-0.085109
-0.057683
-0.052094
-0.064323
-0.092976
-0.116965
-0.122174
-0.095980
-0.053251
-0.039848
-0.040908
-0.053886
0.062142
-0.209774
-0.099513
-0.032035
-0.050184
0.095707
0.030997
-0.341104
-0.093622
-0.074092
-0.068602
-0.014525
0.007900
-0.125348
-0.093186
-0.065964
-0.080959
-0.035455
0.148347
-0.251553
-0.099138
-0.050733
-0.008576
-0.164362
0.000584
-0.059495
-0.093139
-0.059583
-0.049451
0.074926
-0.020884
-0.228493
-0.099850
0.058991
-0.043939
0.040709
-0.003288
-0.339126
-0.091780
-0.037088
-0.116233
0.083698
0.008243
-0.207643
-0.092667
0.077404
0.074337
-0.010845
0.081822
-0.506538
-0.090621
0.085720
0.035072
0.013800
-0.036752
-0.023378
0.039703
0.066582
0.031591
0.111895
0.109641
0.097757
0.077298
0.033302
-0.028027
-0.079188
-0.124917
-0.140635
-0.149683
-0.129273
-0.105971
-0.071923
-0.041267
-0.019603
-0.011780
-0.007391
-0.021466
-0.025618
-0.036624
-0.047002
-0.044966
-0.033735
-0.026109
-0.001494
0.002879
0.008115
0.003269
-0.036800
-0.091550
-0.153709
-0.222049
-0.272607
-0.284235
-0.262193
-0.208524
-0.154076
-0.106475
-0.083766
-0.070330
-0.097801
-0.136897
-0.183225
-0.226148
-0.252947
-0.266285
-0.268383
-0.255816
-0.215934
-0.166387
-0.125932
-0.074905
-0.038445
-0.020540
-0.026682
-0.033949
-0.048674
-0.052504
-0.031241
-0.007292
0.025832
0.038370
0.048623
0.049644
0.056232
0.059809
0.058398
0.062217
0.072269
0.078524
0.080493
0.090900
0.116668
0.147824
0.173997
0.205150
0.215682
0.189416
0.152923
0.082260
-0.008866
-0.088916
-0.163270
-0.224245
-0.243672
-0.235670
-0.212208
-0.163811
-0.109965
-0.073190
-0.056026
-0.051924
-0.061771
-0.054506
-0.054725
-0.037985
-0.030361
-0.014941
-0.018455
-0.029524
-0.060829
-0.085164
-0.121978
-0.173296
-0.218020
-0.256653
-0.297714
-0.323926
-0.342455
-0.335028
0.163956
0.116063
0.094718
0.077701
0.059211
0.057274
0.051577
0.056577
0.057103
0.067417
0.087281
0.113468
0.137570
0.146114
0.148612
0.140279
0.110924
0.085386
0.055913
0.031626
0.023078
0.022979
0.035196
0.034521
0.052023
0.056140
0.066096
0.068990
0.085301
0.077247
0.078975
0.068511
0.063187
0.064752
0.065727
0.066923
0.067941
0.076694
0.081740
0.085042
0.088181
0.094501
0.098206
0.095389
0.098862
0.097236
0.093241
0.087902
0.088071
0.083966
0.083708
0.089960
0.075689
0.054642
0.032746
0.014501
0.007535
-0.000794
0.002657
0.011173
-0.002515
-0.009801
-0.032333
-0.048727
-0.069780
-0.085700
-0.072762
-0.066991
-0.049089
-0.029267
-0.008358
-0.000251
-0.006505
-0.021215
-0.033178
-0.054440
-0.063238
-0.065336
-0.060620
-0.049467
-0.041587
-0.035107
-0.033621
-0.031445
-0.038993
-0.042923
-0.052453
-0.054311
-0.072514
-0.093166
-0.106169
-0.119435
-0.121844
-0.124236
-0.111716
-0.079732
-0.059983
-0.026707
-0.008976
0.004511
0.007155
0.005839
-0.016536
-0.050551
-0.074657
-0.089899
-0.088848
-0.074110
-0.043029
-0.145180
-0.131092
-0.105956
-0.066676
-0.017932
0.010120
0.037010
0.030958
0.016992
-0.010132
-0.050192
-0.088336
-0.104975
-0.116464
-0.113260
-0.092198
-0.083952
-0.080744
-0.092616
-0.108921
-0.117414
-0.134882
-0.123865
-0.102456
-0.084044
-0.065865
-0.057876
-0.058224
-0.062779
-0.070419
-0.079526
-0.084293
-0.085266
-0.088728
-0.084429
-0.080037
-0.062003
-0.047332
-0.027194
-0.010873
-0.016013
-0.008922
-0.013113
-0.003851
-0.001394
0.021354
0.045137
0.055109
0.049497
0.036413
0.018289
-0.009324
-0.025435
-0.032440
-0.036004
-0.034695
-0.018545
-0.012450
-0.000058
-0.014726
-0.032994
-0.065049
-0.105400
-0.138934
-0.164025
-0.160223
-0.147880
-0.121151
-0.088385
-0.051342
-0.043512
-0.040953
-0.047315
-0.069250
-0.100754
-0.116327
-0.132981
-0.137558
-0.129175
-0.094803
-0.063306
-0.041342
-0.028466
-0.027365
-0.040701
-0.053192
-0.080603
-0.096248
-0.121138
-0.136482
-0.148384
-0.142305
-0.141676
-0.112305
-0.089549
-0.057140
-0.030167
-0.017807
-0.015908
-0.038362
-0.050821
-0.055426
-0.066551
-0.070822
-0.060222
-0.044258
-0.025826
-0.010128
0.031281
-0.058341
-0.015402
0.038921
0.064843
0.062966
0.041907
-0.014449
-0.086485
-0.152461
-0.203779
-0.223499
-0.215319
-0.172591
-0.108967
-0.064870
-0.020488
-0.023874
-0.037676
-0.077464
-0.121616
-0.158116
-0.177765
-0.188528
-0.178696
-0.165926
-0.158087
-0.139421
-0.117656
-0.088849
-0.059627
-0.045435
-0.022144
-0.026179
-0.030597
-0.042539
-0.059465
-0.063660
-0.060980
-0.049556
-0.034007
-0.017745
-0.001107
0.001935
-0.002403
-0.010352
-0.022895
-0.030505
-0.025968
-0.028737
-0.017489
-0.018402
-0.030090
-0.050652
-0.074475
-0.112621
-0.141771
-0.155252
-0.138260
-0.102705
-0.056298
0.000474
0.054950
0.086989
0.090261
0.074834
0.045470
-0.008393
-0.067631
-0.135620
-0.181307
-0.211509
-0.213126
-0.190067
-0.150797
-0.087730
-0.035626
0.025665
0.060465
0.095063
0.112035
0.117996
0.124690
0.131874
0.154998
0.181319
0.211277
0.241556
0.257165
0.263002
0.240278
0.204973
0.154725
0.111012
0.077149
0.047193
0.037664
0.040684
0.051356
0.087486
0.120537
0.154182
0.189693
0.206351
0.215823
0.206510
0.211666
0.209102
0.224699
0.228089
0.099737
0.088888
0.237256
0.025949
0.002912
0.156950
0.025099
0.179595
-0.100143
0.394391
-0.045507
0.149296
0.128586
-0.091044
0.047707
0.434114
-0.058971
0.154807
-0.026406
0.220718
0.101383
0.209565
-0.052752
0.148275
0.511259
-0.374573
0.235035
0.273380
-0.190726
0.148963
0.246734
-0.167629
0.260013
0.294971
-0.167036
0.149723
-0.100320
0.403399
-0.105384
0.325397
-0.059154
0.156648
0.192681
0.046334
-0.217334
0.214794
0.218234
0.148276
0.097059
0.173999
0.196434
0.044943
-0.054120
0.154956
-0.043634
0.060629
-0.059348
0.044362
0.064468
0.275646
0.174725
-0.027497
0.149120
0.065640
0.079447
0.096752
0.113270
0.082208
0.046403
-0.017584
-0.084957
-0.148972
-0.167690
-0.140721
-0.088431
-0.021563
0.043887
0.086298
0.109220
0.104198
0.077864
0.053746
0.025143
0.005844
-0.018202
-0.038436
-0.066979
-0.091888
-0.119059
-0.131992
-0.140870
-0.150051
-0.162907
-0.155460
-0.132810
-0.081391
-0.037811
0.014868
0.069135
0.096619
0.110523
0.111176
0.107493
0.103324
0.127008
0.129593
0.113811
0.080177
0.006183
-0.078166
-0.137963
-0.185378
-0.179691
-0.137256
-0.053349
0.035076
0.116035
0.145414
0.136959
0.085440
0.017971
-0.027008
-0.059147
-0.042695
0.005113
0.059016
0.094989
0.133255
0.160879
0.170697
0.171764
0.156506
0.144446
0.124695
0.105702
0.076179
0.063261
0.029988
0.001923
-0.035604
-0.063242
-0.071861
-0.077179
-0.058202
-0.043067
-0.022743
-0.011354
-0.002340
-0.017988
-0.004890
0.019684
0.047731
0.077938
0.099062
0.100052
0.077969
0.044311
0.006459
-0.028405
-0.036957
-0.038382
-0.044084
-0.030202
-0.033302
-0.045932
-0.054981
-0.056219
-0.059664
-0.049820
-0.030737
-0.023645
0.013635
0.260540
0.195012
0.138966
0.080627
0.035190
-0.010277
-0.048515
-0.071880
-0.089748
-0.088720
-0.057010
-0.019911
0.023995
0.056780
0.067554
0.046277
0.011956
-0.054175
-0.075011
-0.086795
-0.063286
-0.006356
0.066680
0.143503
0.183971
0.197671
0.171049
0.114463
0.057695
-0.016229
-0.047465
-0.055374
-0.046070
-0.030362
-0.012857
-0.015513
-0.018864
-0.038014
-0.055448
-0.071343
-0.069372
-0.072492
-0.076561
-0.081730
-0.081464
-0.082025
-0.055497
-0.060181
-0.071776
-0.124808
-0.214167
-0.360618
-0.514165
-0.640593
-0.725696
-0.733782
-0.683470
-0.574786
-0.442247
-0.334569
-0.266010
-0.279867
-0.320137
-0.394746
-0.504476
-0.567433
-0.603467
-0.575124
-0.511780
-0.420430
-0.324477
-0.248315
-0.188664
-0.136947
-0.095957
-0.064560
-0.041567
-0.013999
0.012491
0.026056
0.029186
0.034187
0.044466
0.043887
0.059140
0.061526
0.067163
0.061246
0.058139
0.049769
0.039211
0.049941
0.040156
0.031757
0.012261
0.009708
0.006827
0.016757
0.040739
0.061881
0.092315
0.116396
0.122733
0.145937
0.140396
0.142354
0.126989
0.098936
0.054603
0.220872
0.148227
0.081525
0.046057
0.019086
0.011686
0.007196
0.014798
-0.002242
-0.010143
-0.035081
-0.042689
-0.038516
-0.028818
0.005625
0.051528
0.060321
0.060103
0.057497
0.064785
0.052968
0.058710
0.055216
0.050763
0.034517
0.012809
0.001972
-0.024227
-0.049428
-0.068540
-0.076695
-0.074746
-0.049749
-0.022659
0.016776
0.067166
0.093008
0.089398
0.069506
0.032474
-0.009419
-0.036896
-0.064260
-0.056102
-0.032648
-0.005065
0.028158
0.031465
0.025711
-0.008996
-0.027763
-0.051351
-0.056264
-0.030541
0.002753
0.041431
0.064607
0.060107
0.046809
0.042366
0.031111
0.028904
0.040672
0.044545
0.048588
0.060963
0.060751
0.070972
0.095614
0.115135
0.118435
0.123314
0.097810
0.071835
0.040001
0.020991
0.008026
0.001812
0.017948
0.036380
0.033854
0.043242
0.041994
0.015677
0.001866
-0.023581
-0.032715
-0.043942
-0.040089
-0.038022
-0.035417
-0.002322
0.019929
0.049500
0.068334
0.092710
0.119002
0.117463
0.101650
0.073233
0.043685
0.015633
-0.012920
-0.017999
-0.020578
-0.035689
-0.044815
-0.078830
-0.099168
-0.120322
-0.124800
-0.088148
-0.037010
0.011267
0.063394
0.086161
0.092134
0.094561
0.076148
0.071036
0.025326
-0.005613
-0.049562
-0.084269
-0.097029
-0.096873
-0.063841
-0.026495
0.016851
0.035831
0.039489
0.027910
-0.003344
-0.014139
-0.027772
-0.008959
0.021832
0.041271
0.061982
0.059624
0.037749
-0.004562
-0.053785
-0.100840
-0.111559
-0.106810
-0.080838
-0.059323
-0.027268
-0.005860
0.008363
0.014556
0.017391
0.000434
-0.022485
-0.058256
-0.093924
-0.108405
-0.096071
-0.023650
0.061789
0.170255
0.244862
0.285820
0.274051
0.203926
0.098663
0.003697
-0.062967
-0.082893
-0.045445
0.016707
0.093694
0.177030
0.213474
0.231491
0.200013
0.141847
0.072907
0.002893
-0.067608
-0.124009
-0.154471
-0.183871
-0.184807
-0.181100
-0.180955
-0.167848
-0.168593
-0.174194
-0.174811
-0.169096
-0.138283
-0.092711
-0.045802
0.015235
0.052579
0.063167
0.042011
-0.005636
-0.049750
-0.101055
-0.125640
-0.115209
-0.081463
-0.027093
0.023348
0.056302
0.069623
0.054580
0.023823
-0.012300
-0.046654
-0.070024
-0.062870
-0.027675
0.021818
0.110471
-0.113839
-0.082880
-0.139009
-0.005576
0.112777
-0.069063
0.025323
0.279119
-0.116856
-0.381994
-0.033596
-0.069022
-0.125047
-0.101210
0.234104
-0.056824
-0.166230
-0.072416
0.512034
-0.126009
-0.095491
-0.374736
-0.145885
-0.075184
-0.183491
0.038350
-0.140122
-0.047072
0.110468
-0.071995
0.025654
-0.222915
0.090662
-0.199950
0.086520
-0.075751
1.415701
1.095827
-1.134765
-1.334130
-0.250665
-0.075722
-0.097267
-0.317939
0.403571
-0.154925
-0.051572
-0.071379
0.013518
0.355549
-0.215950
-0.282127
-0.094749
-0.077250
-0.121603
-0.226578
-0.090682
-0.017976
0.199703
-0.366356
0.109301
-0.891340
0.728706
-0.118092
-0.042769
-0.009764
0.073228
0.123175
0.190546
0.210369
0.201998
0.126845
0.001872
-0.100737
-0.161862
-0.158392
-0.127518
-0.059890
0.005122
0.007564
-0.022184
-0.066595
-0.140050
-0.159818
-0.139094
-0.133661
-0.099136
-0.070803
-0.029761
-0.001814
0.021572
0.060205
0.065505
0.055782
0.007562
-0.050618
-0.075746
-0.118093
-0.123732
-0.106088
-0.093685
-0.118605
-0.148674
-0.202019
-0.246854
-0.249533
-0.200507
-0.147015
-0.077081
-0.023543
0.027123
0.053044
0.072688
0.049395
-0.005742
-0.041125
-0.070242
-0.048737
-0.005680
0.068292
0.145000
0.161278
0.104727
-0.000639
-0.144676
-0.239233
-0.238320
-0.160700
-0.080012
-0.010940
0.018319
-0.054034
-0.124203
-0.212828
-0.229541
-0.120579
0.088356
0.368132
0.642131
0.878829
1.032908
1.046691
0.977286
0.786026
0.527210
0.282911
0.060797
-0.075451
-0.087782
-0.036168
0.032664
0.090951
0.063944
-0.027561
-0.144802
-0.275772
-0.294648
-0.246225
-0.130497
-0.008403
0.096755
0.157400
0.126454
0.087499
0.054954
0.007076
-0.009147
-0.007167
0.004303
0.011891
0.021475
0.036582
-0.021996
-0.041414
0.023495
0.074502
0.111937
0.140010
0.103359
0.070644
0.006916
-0.025035
-0.051769
-0.061472
-0.055752
-0.055109
-0.070542
-0.045770
-0.055618
-0.073776
-0.112599
-0.146058
-0.162707
-0.159406
-0.159488
-0.144118
-0.123643
-0.110529
-0.131133
-0.104980
-0.127505
-0.097176
-0.059624
-0.013951
-0.007375
0.016612
0.012599
0.000031
-0.001553
-0.003753
0.001171
0.012449
0.027766
0.026951
0.020072
-0.037299
-0.080390
-0.098091
-0.111753
-0.066924
-0.038417
0.034289
0.058380
0.075183
0.061634
0.050329
0.016928
-0.009433
-0.023748
-0.016337
-0.015561
-0.009766
-0.013418
-0.001410
0.010365
0.014410
0.023843
-0.006828
-0.024374
-0.063551
-0.096389
-0.109196
-0.110380
-0.059956
0.048564
0.248420
0.493204
0.736079
0.925452
1.039342
1.054592
0.972148
0.814714
0.618581
0.427883
0.270877
0.147874
0.053430
-0.010221
-0.048842
-0.082667
-0.072037
-0.061385
-0.006296
0.010133
-0.007956
-0.064159
-0.139504
-0.217445
-0.248293
-0.244981
-0.179216
-0.093121
-0.016161
0.022717
-0.014224
-0.063218
-0.122712
-0.141201
-0.143471
-0.103892
-0.139336
-0.086736
-0.018768
0.069473
0.107585
0.149167
0.154237
0.153418
0.134841
0.118976
0.092295
0.037452
-0.020623
-0.063868
-0.087051
-0.095288
-0.088261
-0.033434
0.027251
0.071917
0.069995
0.051688
0.029935
0.001481
-0.018577
-0.033711
-0.007651
0.000744
0.004741
0.023461
0.008856
0.008249
-0.024814
-0.037951
-0.061013
-0.070129
-0.070413
-0.087972
-0.065638
-0.050043
-0.014751
0.017052
0.067209
0.101232
0.122788
0.074347
0.013175
-0.072367
-0.136932
-0.192908
-0.170933
-0.131224
-0.076883
-0.023618
-0.002841
0.013394
0.039691
0.072032
0.129532
0.170927
0.175515
0.149371
0.083151
-0.011509
-0.125084
-0.215312
-0.257452
-0.255277
-0.177221
-0.078731
0.017114
0.118390
0.144603
0.111627
-0.019136
-0.157253
-0.378593
-0.593701
-0.752228
-0.785651
-0.686354
-0.476039
-0.230774
-0.004171
0.151492
0.196108
0.123611
-0.009800
-0.106633
-0.177900
-0.203354
-0.164847
-0.103141
-0.069193
-0.034679
-0.023678
-0.005146
0.017282
0.123498
0.169373
0.214458
0.199282
0.125930
0.029050
-0.033061
-0.093302
-0.054564
0.085873
0.291855
0.130076
0.098302
0.096289
0.088948
0.088568
0.091922
0.085460
0.084867
0.054222
0.022239
-0.050357
-0.094784
-0.115505
-0.093793
-0.069649
0.012477
0.057771
0.080741
0.079349
0.050433
0.059576
0.023046
0.026109
0.032333
0.029031
-0.006067
-0.051518
-0.124914
-0.155431
-0.165348
-0.156003
-0.098656
-0.003468
0.044075
0.078421
0.043265
-0.009650
-0.063328
-0.114024
-0.132051
-0.112506
-0.048324
0.033381
0.109636
0.189109
0.206461
0.169622
0.109396
0.047515
-0.046737
-0.074230
-0.117033
-0.106792
-0.097110
-0.057212
-0.033789
0.030242
0.048898
0.117232
0.164430
0.167235
0.182015
0.174950
0.152342
0.108525
0.097092
0.055261
0.056134
0.036331
0.067712
0.039638
0.022037
-0.035665
-0.130972
-0.261824
-0.411773
-0.579128
-0.708487
-0.765084
-0.742176
-0.585702
-0.350568
-0.049044
0.184347
0.384736
0.449859
0.412091
0.295666
0.158258
0.005740
-0.118607
-0.184381
-0.235827
-0.215811
-0.193933
-0.119452
-0.004049
0.100772
0.193872
0.249728
0.248099
0.219050
0.165809
0.106995
0.065829
0.025433
0.039468
0.054620
0.103342
0.114985
0.161267
-0.073876
-0.109016
-0.115868
-0.011963
-0.067401
0.167572
-0.122435
-0.113454
0.107249
-0.005358
-0.436158
-0.150504
-0.606581
-0.753105
1.930387
-0.012825
0.013299
0.151592
0.114399
0.016131
-0.320035
-0.004732
0.084060
0.062179
-0.015565
0.007343
-0.157617
-0.004064
-0.007601
-0.031608
-0.085338
0.105448
-0.001394
-0.011880
0.048751
0.195719
-0.191221
0.093914
-0.179426
-0.005912
0.184165
-0.064447
-0.045828
-0.031311
-0.066314
-0.013087
-0.126078
0.070195
0.033535
0.138801
-0.139372
-0.011186
-0.009060
-0.158188
-0.317119
0.028478
0.001494
0.166549
0.035822
0.035277
0.009444
0.173544
0.114776
0.063942
0.039994
0.021335
0.008097
-0.009984
-0.039926
-0.071031
-0.099763
-0.116366
-0.119882
-0.108461
-0.090934
-0.068635
-0.061003
-0.049010
-0.046771
-0.048074
-0.051959
-0.046179
-0.035370
-0.022192
-0.002306
0.030894
0.077040
0.119314
0.147461
0.155040
0.119777
0.066706
0.000656
-0.049516
-0.081482
-0.076213
-0.049604
-0.001133
0.048574
0.048913
0.010607
-0.043731
-0.121376
-0.155714
-0.134501
-0.047215
0.054319
0.149941
0.197109
0.180778
0.113344
0.020281
-0.078608
-0.126628
-0.122080
-0.091650
-0.033423
-0.001164
0.020595
0.010725
-0.024354
-0.034502
-0.036065
-0.034422
-0.007579
0.002999
0.003412
-0.005307
-0.021558
-0.044646
-0.058313
-0.076596
-0.070197
-0.073295
-0.056836
-0.049610
-0.033703
0.001184
0.033327
0.051234
0.079568
0.082860
0.062860
0.021884
-0.032365
-0.079967
-0.115557
-0.130154
-0.126962
-0.114595
-0.081778
-0.052320
-0.029176
0.004409
0.019477
0.014389
0.014318
0.015331
0.028461
0.051064
0.079282
0.094057
0.111775
0.111419
0.111700
0.091916
0.068977
0.030996
0.020406
0.031422
0.031891
-0.016210
-0.049462
-0.052068
-0.031441
-0.009173
0.008808
0.004993
-0.012101
-0.055018
-0.093431
-0.128934
-0.142999
-0.126095
-0.092774
-0.038765
0.023484
0.059298
0.078334
0.054825
0.008249
-0.060141
-0.129685
-0.166724
-0.178146
-0.154120
-0.089925
-0.008918
0.061806
0.115359
0.124925
0.091358
0.023901
-0.043833
-0.105435
-0.146696
-0.146230
-0.119711
-0.083770
-0.038472
-0.018444
0.021129
0.043040
0.047081
0.048131
0.024983
-0.018973
-0.064982
-0.105348
-0.122948
-0.120378
-0.077569
-0.016825
0.035753
0.085908
0.101348
0.072607
0.035055
-0.016284
-0.057439
-0.089521
-0.112439
-0.099710
-0.083454
-0.065396
-0.051960
-0.046109
-0.024091
-0.028914
-0.009722
-0.011528
-0.009231
0.002354
0.000990
0.009619
0.013711
0.019376
0.007407
-0.004073
-0.012589
-0.034524
-0.040029
-0.037317
-0.036359
-0.023142
-0.014033
-0.004076
0.015181
0.029586
0.058629
0.077080
0.090147
0.099746
0.088290
0.085270
0.068669
0.060729
0.071736
0.079286
0.097553
0.113250
0.122675
0.124778
0.106653
0.070953
0.033051
-0.016449
-0.063160
-0.098023
0.218944
0.177851
0.097852
0.002933
-0.087581
-0.158004
-0.183275
-0.169042
-0.122117
-0.065547
0.016952
0.063975
0.083816
0.087865
0.072283
0.041109
0.015733
0.002000
0.009797
0.010038
0.012441
0.014969
0.021703
0.026150
0.025653
0.041248
0.056870
0.068492
0.069229
0.040351
0.016527
-0.018401
-0.026626
-0.014284
0.014297
0.065740
0.096440
0.114622
0.093486
0.051513
0.003130
-0.037593
-0.068811
-0.076212
-0.064873
-0.053256
-0.028659
-0.003073
0.013085
0.030958
0.036817
0.027890
-0.016793
-0.039993
-0.067696
-0.066809
-0.032703
0.010410
0.056804
0.087576
0.088447
0.060396
-0.002426
-0.055568
-0.105665
-0.122240
-0.105580
-0.090277
-0.057443
-0.026413
-0.000188
0.023544
0.050680
0.073639
0.102041
0.106282
0.097013
0.073215
0.042056
0.021934
0.001847
0.004941
0.014867
0.033823
0.052415
0.054908
0.057926
0.056376
0.043925
0.020990
0.015481
0.015729
0.027344
0.035322
0.046678
0.053713
0.048088
0.051670
0.054869
0.057411
0.055610
0.065862
0.057731
0.062106
0.065654
0.069805
0.066182
0.064638
0.081403
0.012639
0.049609
0.094551
0.111814
0.126828
0.105019
0.083385
0.060927
0.028221
-0.001754
-0.023128
-0.023095
-0.032815
-0.016554
-0.011602
-0.002744
0.003752
0.011423
0.017732
0.015022
0.036455
0.043948
0.064436
0.091288
0.112882
0.129074
0.129798
0.113718
0.076912
0.033852
0.010263
-0.013284
-0.030482
-0.014072
0.005517
0.028079
0.054933
0.063043
0.064780
0.040876
-0.005717
-0.057935
-0.111945
-0.154739
-0.166940
-0.150028
-0.105110
-0.042165
0.013644
0.055623
0.079206
0.070055
0.044665
0.021785
-0.002130
-0.020539
-0.016789
-0.020381
-0.015941
-0.017787
-0.035649
-0.066978
-0.086413
-0.124973
-0.139877
-0.139016
-0.121508
-0.065850
-0.004350
0.044436
0.069625
0.079489
0.055687
0.031692
0.000522
-0.023570
-0.038458
-0.048420
-0.043898
-0.029936
-0.001587
0.023583
0.046506
0.066600
0.068988
0.052462
0.038401
0.018999
0.018715
0.021572
0.044288
0.054291
0.072297
0.061760
0.047564
0.028601
0.006710
0.005999
-0.000545
-0.005515
0.012425
0.017213
0.042125
0.069147
0.092002
0.100438
0.095861
0.089431
0.053882
-0.116267
-0.069259
-0.046012
-0.014694
-0.138890
-0.129771
-0.067936
0.123619
-0.110248
-0.114548
-0.214048
-0.132546
-0.181637
0.084077
-0.040410
0.187935
-0.436035
-0.125311
0.036220
0.021401
-0.081742
0.033582
-0.381055
-0.123060
-0.182969
-0.015735
0.288999
-0.000800
-0.471053
-0.124943
-0.203586
0.209059
0.145913
0.245019
-0.779816
-0.132420
-0.130403
-0.191726
-0.261062
-0.418620
0.616600
-0.125358
-0.073810
0.022802
-0.107310
0.164716
-0.409297
-0.131296
-0.126488
0.079244
-0.236745
-0.162772
0.061967
-0.125959
0.003298
0.000727
0.162685
0.108728
0.122381
0.106807
-0.051387
-0.094725
0.007036
-0.035678
-0.027886
-0.001898
0.043813
0.095408
0.130524
0.158634
0.149987
0.121729
0.074654
0.017968
-0.041537
-0.089567
-0.115435
-0.112812
-0.083921
-0.052746
-0.004804
0.025334
0.030368
0.020967
0.000151
-0.022555
-0.013711
0.002841
0.031286
0.042766
0.022398
-0.027841
-0.116762
-0.200539
-0.251622
-0.284557
-0.270414
-0.213433
-0.124563
-0.043359
0.021115
0.054583
0.055583
0.029673
-0.001555
-0.027845
-0.034610
-0.048364
-0.058654
-0.089324
-0.109640
-0.132154
-0.152851
-0.151227
-0.127159
-0.079522
-0.042172
-0.017098
-0.005392
-0.016462
-0.028399
-0.050040
-0.064535
-0.045270
-0.032092
-0.021198
0.005977
0.037004
0.061561
0.096832
0.117328
0.118942
0.106711
0.088108
0.070477
0.057145
0.052856
0.059089
0.088325
0.113161
0.132455
0.138420
0.132922
0.098265
0.043662
-0.039479
-0.123524
-0.198733
-0.232545
-0.223815
-0.162644
-0.063286
0.057393
0.144399
0.199938
0.208633
0.161104
0.098927
0.035540
0.009714
0.003798
0.028232
0.041789
0.047101
0.050182
0.019497
-0.000032
-0.022559
-0.035776
-0.045192
-0.045431
-0.017721
-0.085921
-0.072936
-0.081264
-0.087608
-0.098482
-0.104704
-0.082054
-0.054111
-0.021468
0.019615
0.041188
0.043557
0.045003
0.045594
0.055867
0.057807
0.065931
0.055917
0.042052
0.000911
-0.038172
-0.068000
-0.106475
-0.110003
-0.118318
-0.094725
-0.092702
-0.079800
-0.081328
-0.080627
-0.074473
-0.081964
-0.079604
-0.096553
-0.108979
-0.114144
-0.119264
-0.087541
-0.051338
0.010466
0.077337
0.137539
0.167606
0.164936
0.120291
0.062385
-0.027875
-0.099287
-0.161264
-0.198438
-0.202162
-0.183757
-0.152000
-0.108280
-0.075056
-0.052209
-0.054574
-0.067016
-0.104412
-0.128460
-0.143242
-0.154971
-0.125762
-0.074676
-0.029185
0.022162
0.060498
0.074702
0.062654
0.056142
0.029344
0.026042
0.028119
0.047402
0.058427
0.073441
0.072331
0.052982
0.016964
-0.004280
-0.033316
-0.041799
-0.040510
-0.020492
-0.002643
0.010261
0.036469
0.042716
0.059150
0.064683
0.067316
0.070221
0.080522
0.083130
0.090971
0.087691
0.094446
0.089592
0.087952
0.090408
0.085963
0.097274
0.096168
0.089626
0.071700
0.038475
0.029053
0.014900
0.011936
0.280596
0.285458
0.231482
0.156412
0.063319
0.000772
-0.046520
-0.055656
-0.047671
-0.028736
0.001051
0.025273
0.039999
0.052688
0.038467
0.018526
-0.004374
-0.016171
-0.041021
-0.063235
-0.087439
-0.094002
-0.092950
-0.073377
-0.044720
-0.026593
-0.019626
-0.055798
-0.095109
-0.153263
-0.175522
-0.178147
-0.140846
-0.063665
0.006797
0.058723
0.084620
0.080173
0.063195
0.026490
-0.006999
-0.026247
-0.066092
-0.094929
-0.136893
-0.191310
-0.226263
-0.240264
-0.227640
-0.173000
-0.118388
-0.069219
-0.043412
-0.046560
-0.075037
-0.103592
-0.137548
-0.148088
-0.151264
-0.159442
-0.153771
-0.151426
-0.178995
-0.196645
-0.212042
-0.201421
-0.162682
-0.106483
-0.043412
0.016255
0.043176
0.030784
0.002648
-0.028967
-0.051467
-0.045483
-0.022840
0.018697
0.046216
0.073216
0.084884
0.084347
0.073453
0.079155
0.090873
0.099635
0.114960
0.116086
0.129065
0.132581
0.126189
0.124455
0.107899
0.090163
0.047638
0.020256
-0.016003
-0.026536
-0.028589
-0.013263
0.013271
0.048346
0.072606
0.085586
0.085874
0.054874
0.030258
-0.008113
-0.017915
-0.126803
-0.166544
-0.177317
-0.147806
-0.111382
-0.074319
-0.029091
-0.004869
0.007940
0.019260
0.007524
0.007189
0.008369
0.015874
0.024368
0.057227
0.088554
0.128032
0.163201
0.190594
0.210528
0.224342
0.226538
0.236765
0.253603
0.262210
0.261754
0.265617
0.267820
0.253615
0.249900
0.242912
0.231012
0.222336
0.193432
0.137953
0.072459
-0.010202
-0.091444
-0.170692
-0.231235
-0.228245
-0.186760
-0.096561
0.020936
0.151484
0.232395
0.287525
0.303397
0.254629
0.198526
0.114029
0.041020
-0.031966
-0.073701
-0.087359
-0.082050
-0.051657
-0.006409
0.014460
0.031806
0.004721
-0.049518
-0.122721
-0.176672
-0.205546
-0.198079
-0.158431
-0.089843
-0.034802
-0.002018
0.022061
0.018491
0.014048
0.024911
0.044096
0.077441
0.108516
0.123795
0.130416
0.115704
0.092717
0.070133
0.048010
0.026658
0.017394
0.018114
0.021042
0.017694
0.013379
0.005966
-0.014554
-0.018483
-0.019388
-0.023077
-0.005404
0.028631
0.048839
0.071478
0.094560
0.095486
0.091678
0.066939
0.031774
-0.027111
-0.092140
-0.156372
-0.217360
-0.253008
0.009114
0.019999
0.018551
0.001391
0.021458
0.026946
0.018240
0.019419
0.012788
0.015663
0.008310
0.028571
0.003258
0.011444
0.008177
0.015920
0.033595
0.021275
0.016472
0.028303
0.007544
0.007963
0.012935
0.028309
0.010186
0.029825
0.025245
0.018041
0.005507
0.027782
0.014985
0.021017
0.012040
0.028717
0.008645
0.029915
0.002545
0.015850
0.023460
0.010588
0.031576
0.021756
0.010966
0.016933
0.019006
0.026236
0.015682
0.021450
0.014257
0.016801
0.014508
0.021599
0.017545
0.022569
0.007919
0.009625
-0.000648
0.003199
0.004798
0.008178
-0.000946
0.012963
0.012008
0.010504
0.004985
0.005082
0.002240
-0.008194
-0.009211
-0.000905
0.002107
0.005400
0.001980
0.009632
0.016740
0.016896
0.010498
0.014222
0.014849
0.016240
0.008106
0.019555
0.023480
0.026709
0.022141
0.029257
0.025623
0.022851
0.027143
0.022477
0.013471
0.021287
0.013883
0.015719
0.023631
0.024900
0.020281
0.027800
0.029318
0.022700
0.024981
0.024193
0.014732
0.017898
0.010912
0.017676
0.011224
0.014532
0.018142
0.028036
0.023268
0.025789
0.031584
0.023940
0.023899
0.031347
0.030453
0.031118
0.028079
0.035777
0.033226
0.034287
0.039097
0.038128
0.037142
0.032900
0.026862
0.019842
0.019895
0.018684
0.019229
0.017830
0.022592
0.031068
0.033311
0.029540
0.029858
0.028590
0.022858
0.019402
0.015944
0.007644
0.011315
0.019135
0.017799
0.025399
0.027233
0.020297
0.020234
0.024204
0.019401
0.015803
0.008514
0.010963
0.008375
0.006972
0.008135
0.018064
0.011149
0.016144
0.012399
0.014958
0.011947
0.009931
0.003451
0.002323
0.002143
0.012884
0.008969
0.020575
0.021749
0.023464
0.018210
0.009225
0.014940
0.008690
0.013060
0.006857
0.007008
0.005029
0.008248
0.008899
0.017038
0.016274
0.016376
0.009526
0.014064
0.011681
0.002377
-0.001467
-0.000301
0.002684
0.003649
0.006545
0.000506
0.010452
0.003355
0.005278
0.011297
0.004505
0.002187
0.003754
0.000338
0.008873
0.002789
0.007598
0.002686
0.003297
0.013561
0.008950
0.006947
0.008825
0.015250
0.017776
0.018319
0.012751
0.011904
0.019045
0.013845
0.015529
0.020267
0.018393
0.020255
0.011984
0.013089
0.007157
0.007910
0.011896
0.008405
0.006218
0.014106
0.009309
0.009293
0.014158
0.007797
0.013259
0.009919
0.009450
0.011836
0.005032
0.000601
-0.000226
0.006457
0.006474
0.008672
0.004349
0.011219
0.002181
0.004082
0.004726
0.006399
0.012756
0.011749
0.006442
0.006057
0.005439
0.008753
0.008814
0.008954
0.007913
0.005193
0.003577
-0.001167
-0.002080
0.003291
0.006159
0.000167
0.000791
0.002883
0.010649
0.003702
0.001201
0.008325
-0.001112
0.007840
0.008994
0.008724
0.013420
0.015708
0.016983
0.010590
0.004790
0.011144
0.013901
0.013166
0.006577
0.007440
0.006811
0.012071
0.004145
0.004718
0.009904
0.012848
0.011222
0.012746
0.006790
0.005761
0.011300
0.005397
0.007131
0.011850
0.012219
0.012110
0.011596
0.011632
0.009219
0.008763
0.005545
0.006610
0.007516
0.005872
0.011323
0.012623
0.013096
0.006275
0.004563
0.009125
0.005150
0.003953
0.003615
0.003710
0.004530
-0.001800
0.003209
0.000093
0.006783
0.005542
0.003470
0.004169
-0.002054
-0.001309
0.002840
0.009501
0.009870
0.003219
0.009176
0.003928
0.008007
-0.000137
0.007219
-0.000062
0.000943
0.002327
0.009804
0.002631
0.010887
0.005857
0.004107
0.007324
0.003741
0.012413
0.006816
0.015706
0.009797
0.020685
0.017248
0.027166
0.025078
0.026604
0.024600
0.023557
0.024284
0.015890
0.019673
0.023280
0.018406
0.017939
0.025936
0.025101
0.017081
0.023237
0.016158
0.021373
0.016963
0.016760
0.024226
0.017841
0.024666
0.028775
0.027489
0.028304
0.029175
0.029047
0.022689
0.025849
0.024030
0.024959
0.026723
0.021829
0.025184
0.004021
0.009932
0.003355
0.003261
0.001098
0.006846
0.004126
0.001117
0.007510
0.004506
0.008941
0.009354
0.009508
0.002508
0.007406
0.005078
0.003979
0.002403
-0.003859
0.003328
0.000829
0.009647
0.006999
0.006464
0.007120
0.005029
0.008917
0.006625
0.003554
0.001855
-0.004423
-0.002983
0.006536
0.008494
0.012872
0.020034
0.014979
0.021682
0.010314
0.016519
0.007159
0.010059
0.009660
0.006133
0.018460
0.016996
0.026816
0.028575
0.022886
0.020968
0.021051
0.020452
0.020468
0.018323
0.016987
0.011993
0.013705
0.022222
0.019980
0.021019
0.025652
0.026177
0.023655
0.031419
0.029590
0.026421
0.026961
0.019852
0.025222
0.027056
0.019137
0.027129
0.020169
0.021749
0.021875
0.011924
0.016839
0.013174
0.013972
0.005264
0.014333
0.011599
0.018595
0.022249
0.019234
0.023250
0.017946
0.022946
0.015910
0.016451
0.021383
0.022423
0.026606
0.030358
0.031827
0.034524
0.031414
0.029404
0.032228
0.029694
0.016629
0.021048
0.018593
0.014980
0.012904
0.018310
0.019106
0.014253
0.016432
0.000684
0.044186
0.006448
-0.018062
-0.001518
0.008350
0.016673
0.012071
-0.003631
0.029630
-0.014015
0.013994
-0.009406
-0.001461
-0.000970
0.008042
0.043175
0.007579
0.013367
0.001411
0.008868
-0.004887
0.016582
0.014850
0.014948
0.017123
0.006073
0.008477
-0.013514
0.014305
0.019883
0.010723
-0.003843
0.012368
0.002767
0.012963
0.006565
0.007580
0.004484
0.017429
0.006175
0.009503
0.003991
0.000922
-0.000440
0.060395
-0.016008
0.007672
0.026050
0.026700
0.010118
0.014840
-0.032054
0.008753
-0.003826
-0.001327
-0.008044
-0.005175
0.000890
-0.008130
-0.006113
0.013225
0.022210
0.012249
0.009013
0.006452
0.009818
-0.003223
0.001706
-0.004385
0.000108
0.010905
0.017770
0.021278
0.030156
0.032631
0.034296
0.025757
0.029823
0.024948
0.024026
0.030835
0.042856
0.040607
0.051914
0.048058
0.048649
0.045604
0.048276
0.039929
0.044224
0.046517
0.044686
0.052407
0.049731
0.058522
0.064196
0.058377
0.066628
0.068477
0.063556
0.059276
0.061755
0.051609
0.052846
0.044663
0.049610
0.046536
0.050507
0.057402
0.064946
0.065240
0.068962
0.067057
0.065103
0.063144
0.067192
0.069846
0.072121
0.072880
0.081209
0.072325
0.069867
0.065714
0.065125
0.051568
0.051756
0.044918
0.035965
0.035652
0.033952
0.035718
0.034616
0.029561
0.030462
0.033472
0.034569
0.038640
0.034357
0.030499
0.018669
0.018723
0.011868
0.008352
0.010352
0.008737
0.015891
0.008954
0.004067
0.003247
0.004169
0.003095
-0.004164
0.001400
-0.004488
-0.002408
-0.001189
0.000185
0.000613
0.007929
0.007502
0.004044
-0.000492
-0.009235
-0.010009
-0.015921
-0.017732
-0.023487
-0.015997
-0.012473
-0.015159
-0.007601
0.025026
0.027511
0.018961
0.022208
0.020847
0.019690
0.019187
0.017764
0.012832
0.019885
0.021558
0.022222
0.021149
0.023589
0.012283
0.017579
0.007826
0.004088
0.004303
0.007830
0.006075
-0.001566
0.002192
0.008337
0.011406
0.006290
0.014972
0.009073
0.013157
0.014338
0.004813
0.010184
0.006282
0.000827
0.000900
-0.000556
-0.001222
0.001269
0.000829
0.006431
0.006556
0.017311
0.013009
0.020725
0.023910
0.018952
0.021947
0.028792
0.022273
0.027975
0.025847
0.015339
0.021416
0.010534
0.013977
0.012566
0.006557
0.009638
0.012526
0.011516
0.004494
0.000566
0.005829
0.006399
-0.001063
-0.004204
-0.004645
-0.001271
-0.003531
-0.009160
-0.012900
-0.007397
-0.013575
-0.012155
-0.010853
-0.002309
-0.006726
-0.001463
0.000501
-0.000029
-0.002166
-0.002186
-0.002324
-0.006688
-0.005833
-0.010939
-0.018561
-0.020850
-0.024218
-0.025433
-0.026932
-0.022509
-0.026370
-0.019173
-0.021117
-0.018752
-0.026119
-0.018110
-0.023990
-0.019910
-0.025530
-0.022374
-0.021761
-0.018755
-0.010751
-0.008429
-0.010465
-0.008912
-0.007004
0.002724
0.010907
0.010250
0.009521
0.008265
0.001986
0.005724
-0.000007
0.003760
-0.002697
0.004751
0.009025
0.002323
0.001812
0.001870
-0.000355
0.005241
-0.002298
-0.000032
0.005988
0.006404
0.011132
0.009295
0.009237
0.000169
-0.002772
0.002080
0.003231
-0.001581
0.004742
-0.001662
0.003864
0.005208
-0.003925
-0.002424
-0.000319
-0.002153
-0.005974
-0.006228
-0.003543
-0.000991
0.005016
-0.001171
0.003362
-0.005359
-0.000205
0.001108
-0.000306
0.000091
-0.004481
-0.001833
-0.002014
-0.001723
-0.002080
-0.003067
-0.000230
-0.004710
0.000027
-0.007234
-0.002008
-0.001921
-0.002902
-0.004020
0.001782
0.004815
0.009267
0.003556
0.003721
0.003468
0.004301
0.004995
0.009183
0.005918
0.015173
0.012782
0.013544
0.015362
0.012977
0.018537
0.007108
0.010830
0.008430
0.009494
0.016645
0.017708
0.017876
0.012509
0.009789
0.014243
0.014061
0.005886
0.010847
0.007631
0.010516
0.004635
0.003967
0.007504
0.007768
0.007797
0.014668
0.015383
0.013276
0.005687
0.009945
0.001921
0.002481
0.009882
0.009821
0.012715
-0.005515
-0.001589
-0.003871
-0.000311
-0.001485
0.006047
-0.004943
0.001978
-0.005064
-0.005261
-0.000366
-0.005245
-0.003693
-0.007333
-0.003753
-0.012448
-0.012154
-0.007055
-0.008586
-0.002858
0.002456
-0.001745
0.002500
0.004586
0.003164
0.010595
0.005573
0.003192
0.003978
-0.005130
-0.004706
0.003605
0.006737
0.003682
0.004519
0.014690
0.006604
0.003088
0.006504
0.000461
-0.004733
-0.007402
-0.004136
-0.010197
0.001453
0.005955
0.005423
0.017457
0.010835
0.014918
0.011443
0.011822
0.005941
0.004437
-0.001224
0.005583
0.007212
0.011927
0.009128
0.016561
0.012988
0.021443
0.020346
0.027845
0.028784
0.026856
0.030767
0.023640
0.029701
0.029051
0.028575
0.019694
0.017737
0.021938
0.013776
0.019360
0.010799
0.009965
0.014910
0.012622
0.007422
0.012970
0.019584
0.024047
0.022256
0.033254
0.032475
0.037325
0.037336
0.037689
0.035810
0.039328
0.035118
0.032967
0.044106
0.039502
0.043841
0.045636
0.043027
0.036563
0.039221
0.037152
0.036518
0.039054
0.033305
0.039736
0.039124
0.037134
0.030375
-0.309675
0.018696
0.049742
-0.017131
-0.126934
-0.130142
-0.242502
0.215975
0.012563
-0.076162
-0.284182
-0.124515
-0.328762
-0.057518
0.093378
0.247373
-0.338153
-0.127667
0.237173
-0.139233
-0.483273
0.499737
-0.493181
-0.124946
0.089173
0.111084
0.020743
-0.073297
-0.523275
-0.123643
0.104964
0.148741
0.088104
-0.323366
-0.402462
-0.129511
0.181193
-0.361764
0.035536
0.019510
-0.265039
-0.129576
0.048160
0.068022
-0.430158
0.237587
-0.306286
-0.122167
-0.062950
-0.095581
-0.130199
-0.058362
-0.048219
-0.124668
-0.100160
-0.121982
-0.105786
0.040523
0.099793
0.118688
0.087192
0.126556
0.001747
0.126959
0.101711
0.082765
0.083868
0.092586
0.125096
0.150076
0.186894
0.191724
0.156245
0.101409
0.045695
0.012502
0.011469
0.033497
0.067171
0.103380
0.137282
0.151880
0.148562
0.145182
0.125533
0.104956
0.079864
0.046502
0.007715
-0.020885
-0.041609
-0.034919
-0.007425
0.030421
0.064822
0.080313
0.057968
0.005907
-0.060276
-0.134731
-0.204929
-0.216392
-0.174847
-0.107012
-0.033888
0.049136
0.082396
0.092904
0.060740
-0.001813
-0.063742
-0.113419
-0.155027
-0.136093
-0.096673
-0.025402
0.015699
0.046706
0.016663
-0.056922
-0.136132
-0.223136
-0.262416
-0.254781
-0.213424
-0.111767
0.000602
0.091995
0.161355
0.188393
0.170537
0.109517
0.008249
-0.104411
-0.203382
-0.269182
-0.278744
-0.228891
-0.138056
-0.034594
0.042833
0.087590
0.082777
0.013760
-0.090657
-0.189855
-0.272754
-0.305793
-0.284216
-0.231565
-0.154981
-0.052122
0.025623
0.089525
0.123239
0.109719
0.089238
0.045867
0.023290
0.008564
0.020701
0.039350
0.075275
0.099289
0.129643
0.113795
0.084088
0.020332
-0.072960
-0.191679
-0.319956
-0.442900
0.059462
0.048604
0.069142
0.103550
0.121845
0.149416
0.158949
0.149826
0.139308
0.117466
0.103432
0.103435
0.109532
0.116948
0.134905
0.147938
0.141933
0.113510
0.081854
0.028883
-0.012336
-0.052646
-0.078765
-0.086738
-0.081821
-0.069705
-0.044730
-0.007833
0.031322
0.073417
0.106333
0.116818
0.110284
0.073768
0.020357
-0.028685
-0.089328
-0.124191
-0.172019
-0.197292
-0.210831
-0.197326
-0.171508
-0.130363
-0.083611
-0.039267
-0.021231
-0.025458
-0.047757
-0.073289
-0.086147
-0.079482
-0.056174
-0.030607
-0.012588
-0.017914
-0.040603
-0.060630
-0.088957
-0.086693
-0.066169
0.000427
0.077206
0.158335
0.224602
0.262437
0.257773
0.214295
0.154032
0.089267
0.027900
-0.023530
-0.051553
-0.042208
-0.022290
0.011407
0.048104
0.071445
0.083326
0.088663
0.066977
0.020911
-0.019945
-0.071716
-0.096855
-0.104169
-0.076383
-0.027220
0.012997
0.047064
0.068065
0.056077
0.019412
-0.041489
-0.092721
-0.125021
-0.146098
-0.134836
-0.104157
-0.060383
-0.006420
0.047889
0.069488
0.073545
0.044003
-0.017724
-0.083892
-0.160242
-0.211408
0.102306
0.133357
0.136171
0.135180
0.115649
0.103004
0.100105
0.105422
0.106667
0.076848
0.057652
0.024682
0.014796
0.040142
0.066002
0.115620
0.175238
0.200232
0.214284
0.189003
0.146070
0.102909
0.070484
0.039657
0.041686
0.040893
0.042065
0.059788
0.073623
0.115251
0.153637
0.183281
0.208480
0.200229
0.181917
0.133955
0.103930
0.064136
0.050345
0.035414
0.007174
-0.018454
-0.049489
-0.067334
-0.062202
-0.026486
0.015352
0.047020
0.059936
0.049345
0.017904
-0.023398
-0.051289
-0.059648
-0.057350
-0.058649
-0.062226
-0.090115
-0.116163
-0.143753
-0.142748
-0.115557
-0.071694
0.006876
0.073833
0.149111
0.197398
0.201816
0.204387
0.160868
0.100199
0.017524
-0.063306
-0.109587
-0.128407
-0.101870
-0.031311
0.079880
0.190952
0.284559
0.342321
0.330600
0.282220
0.191751
0.105536
0.030158
-0.003765
0.020037
0.078051
0.174438
0.250380
0.287699
0.263364
0.194677
0.087521
-0.028822
-0.111281
-0.154219
-0.157569
-0.123408
-0.057411
0.021667
0.099343
0.136761
0.168765
0.170061
0.149450
0.127073
0.112096
-0.327889
-0.281437
-0.211127
-0.127108
-0.058841
0.007716
0.053738
0.079948
0.085194
0.053891
0.018788
-0.030041
-0.065231
-0.098393
-0.080560
-0.042410
0.021054
0.084966
0.125341
0.144633
0.128279
0.102630
0.055754
-0.005186
-0.068329
-0.131337
-0.177981
-0.190635
-0.178626
-0.133403
-0.065627
-0.014099
0.018721
0.008465
-0.036195
-0.094480
-0.170505
-0.215359
-0.224556
-0.176012
-0.114409
-0.046162
-0.002800
-0.011456
-0.043281
-0.101314
-0.161597
-0.204967
-0.233814
-0.232621
-0.227403
-0.198211
-0.174316
-0.157898
-0.149177
-0.125894
-0.109460
-0.093794
-0.080824
-0.072344
-0.101117
-0.164046
-0.249748
-0.348229
-0.442498
-0.483925
-0.478121
-0.413626
-0.297566
-0.155259
-0.029741
0.081974
0.137283
0.152028
0.137418
0.092612
0.060301
0.018401
-0.005625
-0.006961
-0.005997
0.016301
0.029341
0.038208
0.050413
0.054123
0.051910
0.040540
0.038024
0.039084
0.036475
0.042785
0.046891
0.057788
0.062085
0.082013
0.096938
0.095200
0.104086
0.110500
0.102279
0.089260
0.064460
0.042320
0.028142
0.029905
0.044243
0.088479
0.142950
-0.011014
-0.019971
-0.017659
-0.013609
-0.022504
-0.024328
-0.013729
-0.020385
-0.016875
-0.021446
-0.013076
-0.022970
-0.013804
-0.016005
-0.018739
-0.009727
-0.016284
-0.030729
-0.010093
-0.029183
-0.011869
-0.009298
-0.013250
-0.026045
-0.011203
-0.028980
-0.021384
-0.013828
-0.004507
-0.024463
-0.014908
-0.017167
-0.009875
-0.023361
-0.009287
-0.031507
-0.009227
-0.026792
-0.025383
-0.004021
-0.025923
-0.026064
-0.008004
-0.013875
-0.023596
-0.026349
-0.011206
-0.030506
-0.011304
-0.020883
-0.023197
-0.022071
-0.016496
-0.030888
-0.004850
-0.013029
-0.008660
-0.005938
-0.014561
-0.011548
-0.009450
-0.008390
-0.019722
-0.011275
-0.005923
-0.005660
-0.003316
0.005427
0.000476
0.002514
0.004879
-0.002894
-0.009568
-0.005946
-0.006285
-0.014732
-0.006434
-0.012373
-0.008262
-0.007606
-0.007392
-0.009040
-0.011948
-0.015471
-0.016496
-0.021120
-0.027557
-0.023283
-0.023261
-0.021916
-0.013877
-0.013134
-0.019378
-0.012835
-0.015281
-0.020169
-0.016862
-0.019528
-0.026617
-0.027520
-0.025009
-0.014931
-0.018090
-0.017215
